{"learner":{"attributes":{"scikit_learn":"{\"_estimator_type\": \"regressor\"}"},"feature_names":[],"feature_types":[],"gradient_booster":{"model":{"gbtree_model_param":{"num_parallel_tree":"1","num_trees":"300"},"iteration_indptr":[0,1,2,3,4,5,6,7,8,9,10,11,12,13,14,15,16,17,18,19,20,21,22,23,24,25,26,27,28,29,30,31,32,33,34,35,36,37,38,39,40,41,42,43,44,45,46,47,48,49,50,51,52,53,54,55,56,57,58,59,60,61,62,63,64,65,66,67,68,69,70,71,72,73,74,75,76,77,78,79,80,81,82,83,84,85,86,87,88,89,90,91,92,93,94,95,96,97,98,99,100,101,102,103,104,105,106,107,108,109,110,111,112,113,114,115,116,117,118,119,120,121,122,123,124,125,126,127,128,129,130,131,132,133,134,135,136,137,138,139,140,141,142,143,144,145,146,147,148,149,150,151,152,153,154,155,156,157,158,159,160,161,162,163,164,165,166,167,168,169,170,171,172,173,174,175,176,177,178,179,180,181,182,183,184,185,186,187,188,189,190,191,192,193,194,195,196,197,198,199,200,201,202,203,204,205,206,207,208,209,210,211,212,213,214,215,216,217,218,219,220,221,222,223,224,225,226,227,228,229,230,231,232,233,234,235,236,237,238,239,240,241,242,243,244,245,246,247,248,249,250,251,252,253,254,255,256,257,258,259,260,261,262,263,264,265,266,267,268,269,270,271,272,273,274,275,276,277,278,279,280,281,282,283,284,285,286,287,288,289,290,291,292,293,294,295,296,297,298,299,300],"tree_info":[0,0,0,0,0,0,0,0,0,0,0,0,0,0,0,0,0,0,0,0,0,0,0,0,0,0,0,0,0,0,0,0,0,0,0,0,0,0,0,0,0,0,0,0,0,0,0,0,0,0,0,0,0,0,0,0,0,0,0,0,0,0,0,0,0,0,0,0,0,0,0,0,0,0,0,0,0,0,0,0,0,0,0,0,0,0,0,0,0,0,0,0,0,0,0,0,0,0,0,0,0,0,0,0,0,0,0,0,0,0,0,0,0,0,0,0,0,0,0,0,0,0,0,0,0,0,0,0,0,0,0,0,0,0,0,0,0,0,0,0,0,0,0,0,0,0,0,0,0,0,0,0,0,0,0,0,0,0,0,0,0,0,0,0,0,0,0,0,0,0,0,0,0,0,0,0,0,0,0,0,0,0,0,0,0,0,0,0,0,0,0,0,0,0,0,0,0,0,0,0,0,0,0,0,0,0,0,0,0,0,0,0,0,0,0,0,0,0,0,0,0,0,0,0,0,0,0,0,0,0,0,0,0,0,0,0,0,0,0,0,0,0,0,0,0,0,0,0,0,0,0,0,0,0,0,0,0,0,0,0,0,0,0,0,0,0,0,0,0,0,0,0,0,0,0,0,0,0,0,0,0,0,0,0,0,0,0,0,0,0,0,0,0,0,0,0,0,0,0,0],"trees":[{"base_weights":[1.1220754E-9,-1.0753052E-2,2.2043759E-2,-4.196061E-2,5.0931543E-2,-4.5057654E-2,3.1319943E-3,3.917743E-2,4.85825E-3,-5.1484622E-2,-7.2022933E-3,1.8002154E-2,2.3418856E-3,-2.8796883E-3,-1.4687948E-3,-3.9400996E-4,-4.447624E-5,3.8916804E-4,1.1288379E-3],"categories":[],"categories_nodes":[],"categories_segments":[],"categories_sizes":[],"default_left":[0,0,0,0,0,0,0,0,0,0,0,0,0,0,0,0,0,0,0],"id":0,"left_children":[1,3,-1,5,7,9,-1,11,-1,13,15,17,-1,-1,-1,-1,-1,-1,-1],"loss_changes":[3.9822334E-1,1.5998922E-1,0E0,2.0639785E-2,1.1409469E-2,1.2767136E-2,0E0,3.0498244E-3,0E0,4.521139E-3,3.1505508E-5,1.982525E-4,0E0,0E0,0E0,0E0,0E0,0E0,0E0],"parents":[2147483647,0,0,1,1,3,3,4,4,5,5,7,7,9,9,10,10,11,11],"right_children":[2,4,-1,6,8,10,-1,12,-1,14,16,18,-1,-1,-1,-1,-1,-1,-1],"split_conditions":[7.625892E0,1.1496176E-1,2.2043759E-2,7.916732E0,7.614425E-1,-9.661375E-2,3.1319943E-3,3.7355405E-1,4.85825E-3,-1.3123418E-1,2.09282E-2,3.0302888E-1,2.3418856E-3,-2.8796883E-3,-1.4687948E-3,-3.9400996E-4,-4.447624E-5,3.8916804E-4,1.1288379E-3],"split_indices":[0,0,0,2,0,0,0,0,0,1,0,0,0,0,0,0,0,0,0],"split_type":[0,0,0,0,0,0,0,0,0,0,0,0,0,0,0,0,0,0,0],"sum_hessian":[8.2E1,8.1E1,1E0,5.4E1,2.7E1,5.3E1,1E0,2.3E1,4E0,4.5E1,8E0,7E0,1.6E1,3.4E1,1.1E1,7E0,1E0,3E0,4E0],"tree_param":{"num_deleted":"0","num_feature":"6","num_nodes":"19","size_leaf_vector":"1"}},{"base_weights":[3.5068556E-4,-1.0129265E-2,2.1492666E-2,-3.989267E-2,4.8696328E-2,-4.289342E-2,3.0536945E-3,3.7372574E-2,4.6655545E-3,-4.9004924E-2,-6.8908995E-3,1.72918E-2,2.2311981E-3,-2.7398178E-3,-1.4014752E-3,-4.2045512E-4,-1.445435E-4,3.745743E-4,1.0836845E-3],"categories":[],"categories_nodes":[],"categories_segments":[],"categories_sizes":[],"default_left":[0,0,0,0,0,0,0,0,0,0,0,0,0,0,0,0,0,0,0],"id":1,"left_children":[1,3,-1,5,7,9,-1,11,-1,13,15,17,-1,-1,-1,-1,-1,-1,-1],"loss_changes":[3.7795085E-1,1.4551233E-1,0E0,1.928331E-2,1.0658503E-2,1.1543907E-2,0E0,2.7230978E-3,0E0,4.0520653E-3,3.0346098E-5,1.8118299E-4,0E0,0E0,0E0,0E0,0E0,0E0,0E0],"parents":[2147483647,0,0,1,1,3,3,4,4,5,5,7,7,9,9,10,10,11,11],"right_children":[2,4,-1,6,8,10,-1,12,-1,14,16,18,-1,-1,-1,-1,-1,-1,-1],"split_conditions":[7.625892E0,1.1496176E-1,2.1492666E-2,7.916732E0,7.1833444E-1,-9.661375E-2,3.0536945E-3,3.7355405E-1,4.6655545E-3,-1.3123418E-1,-1.4334384E-2,3.0302888E-1,2.2311981E-3,-2.7398178E-3,-1.4014752E-3,-4.2045512E-4,-1.445435E-4,3.745743E-4,1.0836845E-3],"split_indices":[0,0,0,2,1,0,0,0,0,1,0,0,0,0,0,0,0,0,0],"split_type":[0,0,0,0,0,0,0,0,0,0,0,0,0,0,0,0,0,0,0],"sum_hessian":[8.2E1,8.1E1,1E0,5.4E1,2.7E1,5.3E1,1E0,2.3E1,4E0,4.5E1,8E0,7E0,1.6E1,3.4E1,1.1E1,5E0,3E0,3E0,4E0],"tree_param":{"num_deleted":"0","num_feature":"6","num_nodes":"19","size_leaf_vector":"1"}},{"base_weights":[6.7285064E-4,-9.5410645E-3,2.0955348E-2,-3.7928086E-2,4.6559904E-2,-4.0835902E-2,2.9773521E-3,3.556305E-2,4.501641E-3,-4.6644706E-2,-6.609131E-3,1.4846615E-2,2.082186E-3,-2.6067412E-3,-1.3372408E-3,-4.268186E-4,-1.6800321E-4,3.6052763E-4,9.3855115E-4],"categories":[],"categories_nodes":[],"categories_segments":[],"categories_sizes":[],"default_left":[0,0,0,0,0,0,0,0,0,0,0,0,0,0,0,0,0,0,0],"id":2,"left_children":[1,3,-1,5,7,9,-1,11,-1,13,15,17,-1,-1,-1,-1,-1,-1,-1],"loss_changes":[3.5872832E-1,1.3235416E-1,0E0,1.802086E-2,1.0183986E-2,1.0427818E-2,0E0,2.4050046E-3,0E0,3.6312789E-3,2.7672853E-5,7.441966E-5,0E0,0E0,0E0,0E0,0E0,0E0,0E0],"parents":[2147483647,0,0,1,1,3,3,4,4,5,5,7,7,9,9,10,10,11,11],"right_children":[2,4,-1,6,8,10,-1,12,-1,14,16,18,-1,-1,-1,-1,-1,-1,-1],"split_conditions":[7.625892E0,1.1496176E-1,2.0955348E-2,7.916732E0,7.614425E-1,-9.661375E-2,2.9773521E-3,3.5004565E-1,4.501641E-3,-1.3123418E-1,-2.6088579E-2,3.0302888E-1,2.082186E-3,-2.6067412E-3,-1.3372408E-3,-4.268186E-4,-1.6800321E-4,3.6052763E-4,9.3855115E-4],"split_indices":[0,0,0,2,0,0,0,0,0,1,0,0,0,0,0,0,0,0,0],"split_type":[0,0,0,0,0,0,0,0,0,0,0,0,0,0,0,0,0,0,0],"sum_hessian":[8.2E1,8.1E1,1E0,5.4E1,2.7E1,5.3E1,1E0,2.3E1,4E0,4.5E1,8E0,6E0,1.7E1,3.4E1,1.1E1,4E0,4E0,3E0,3E0],"tree_param":{"num_deleted":"0","num_feature":"6","num_nodes":"19","size_leaf_vector":"1"}},{"base_weights":[9.6784515E-4,-8.98692E-3,2.0431465E-2,-3.606007E-2,4.451344E-2,-3.8878158E-2,2.9029183E-3,3.4998655E-2,4.6426253E-3,-4.439821E-2,-6.3447645E-3,1.5862063E-2,2.077972E-3,-2.4801278E-3,-1.2759508E-3,-3.4800536E-4,-3.555063E-5,3.470079E-4,9.913587E-4],"categories":[],"categories_nodes":[],"categories_segments":[],"categories_sizes":[],"default_left":[0,0,0,0,0,0,0,0,0,0,0,0,0,0,0,0,0,0,0],"id":3,"left_children":[1,3,-1,5,7,9,-1,11,-1,13,15,17,-1,-1,-1,-1,-1,-1,-1],"loss_changes":[3.4050074E-1,1.20375864E-1,0E0,1.6845085E-2,9.628493E-3,9.415947E-3,0E0,2.4795607E-3,0E0,3.2538697E-3,2.6251422E-5,1.4540693E-4,0E0,0E0,0E0,0E0,0E0,0E0,0E0],"parents":[2147483647,0,0,1,1,3,3,4,4,5,5,7,7,9,9,10,10,11,11],"right_children":[2,4,-1,6,8,10,-1,12,-1,14,16,18,-1,-1,-1,-1,-1,-1,-1],"split_conditions":[7.625892E0,1.1496176E-1,2.0431465E-2,7.916732E0,9.495096E-1,-9.661375E-2,2.9029183E-3,3.7355405E-1,4.6426253E-3,-1.3123418E-1,2.09282E-2,3.0302888E-1,2.077972E-3,-2.4801278E-3,-1.2759508E-3,-3.4800536E-4,-3.555063E-5,3.470079E-4,9.913587E-4],"split_indices":[0,0,0,2,0,0,0,0,0,1,0,0,0,0,0,0,0,0,0],"split_type":[0,0,0,0,0,0,0,0,0,0,0,0,0,0,0,0,0,0,0],"sum_hessian":[8.2E1,8.1E1,1E0,5.4E1,2.7E1,5.3E1,1E0,2.4E1,3E0,4.5E1,8E0,7E0,1.7E1,3.4E1,1.1E1,7E0,1E0,3E0,4E0],"tree_param":{"num_deleted":"0","num_feature":"6","num_nodes":"19","size_leaf_vector":"1"}},{"base_weights":[1.2478096E-3,-8.454377E-3,1.9920679E-2,-3.4279555E-2,4.257559E-2,-3.701091E-2,2.8303452E-3,3.3385374E-2,4.468527E-3,-4.2259954E-2,-6.0701463E-3,1.5236253E-2,1.9798453E-3,-2.2408392E-3,-6.165297E-4,-3.9582566E-4,-1.5048751E-4,3.33995E-4,9.517042E-4],"categories":[],"categories_nodes":[],"categories_segments":[],"categories_sizes":[],"default_left":[0,0,0,0,0,0,0,0,0,0,0,0,0,0,0,0,0,0,0],"id":4,"left_children":[1,3,-1,5,7,9,-1,11,-1,13,15,17,-1,-1,-1,-1,-1,-1,-1],"loss_changes":[3.231986E-1,1.0952382E-1,0E0,1.5748464E-2,9.057891E-3,8.513585E-3,0E0,2.2150371E-3,0E0,2.9674992E-3,2.7028786E-5,1.3281882E-4,0E0,0E0,0E0,0E0,0E0,0E0,0E0],"parents":[2147483647,0,0,1,1,3,3,4,4,5,5,7,7,9,9,10,10,11,11],"right_children":[2,4,-1,6,8,10,-1,12,-1,14,16,18,-1,-1,-1,-1,-1,-1,-1],"split_conditions":[7.625892E0,1.1496176E-1,1.9920679E-2,7.916732E0,9.495096E-1,-9.661375E-2,2.8303452E-3,3.7355405E-1,4.468527E-3,3.2144405E-2,-2.6088579E-2,3.0302888E-1,1.9798453E-3,-2.2408392E-3,-6.165297E-4,-3.9582566E-4,-1.5048751E-4,3.33995E-4,9.517042E-4],"split_indices":[0,0,0,2,0,0,0,0,0,1,0,0,0,0,0,0,0,0,0],"split_type":[0,0,0,0,0,0,0,0,0,0,0,0,0,0,0,0,0,0,0],"sum_hessian":[8.2E1,8.1E1,1E0,5.4E1,2.7E1,5.3E1,1E0,2.4E1,3E0,4.5E1,8E0,7E0,1.7E1,4.1E1,4E0,4E0,4E0,3E0,4E0],"tree_param":{"num_deleted":"0","num_feature":"6","num_nodes":"19","size_leaf_vector":"1"}},{"base_weights":[1.5116999E-3,-7.944333E-3,1.9422662E-2,-3.2576002E-2,4.072303E-2,-3.52234E-2,2.7595868E-3,3.184673E-2,4.300957E-3,-4.0209077E-2,-5.82734E-3,1.4635151E-2,1.8863529E-3,-2.250824E-3,-1.1418366E-3,-3.799926E-4,-1.4446802E-4,3.214702E-4,9.1363594E-4],"categories":[],"categories_nodes":[],"categories_segments":[],"categories_sizes":[],"default_left":[0,0,0,0,0,0,0,0,0,0,0,0,0,0,0,0,0,0,0],"id":5,"left_children":[1,3,-1,5,7,9,-1,11,-1,13,15,17,-1,-1,-1,-1,-1,-1,-1],"loss_changes":[3.0677736E-1,9.962478E-2,0E0,1.4723629E-2,8.518305E-3,7.679887E-3,0E0,1.9781012E-3,0E0,2.8137043E-3,2.4909707E-5,1.2130907E-4,0E0,0E0,0E0,0E0,0E0,0E0,0E0],"parents":[2147483647,0,0,1,1,3,3,4,4,5,5,7,7,9,9,10,10,11,11],"right_children":[2,4,-1,6,8,10,-1,12,-1,14,16,18,-1,-1,-1,-1,-1,-1,-1],"split_conditions":[7.625892E0,1.1496176E-1,1.9422662E-2,7.916732E0,9.495096E-1,-9.661375E-2,2.7595868E-3,3.7355405E-1,4.300957E-3,-1.3123418E-1,-2.6088579E-2,3.0302888E-1,1.8863529E-3,-2.250824E-3,-1.1418366E-3,-3.799926E-4,-1.4446802E-4,3.214702E-4,9.1363594E-4],"split_indices":[0,0,0,2,0,0,0,0,0,1,0,0,0,0,0,0,0,0,0],"split_type":[0,0,0,0,0,0,0,0,0,0,0,0,0,0,0,0,0,0,0],"sum_hessian":[8.2E1,8.1E1,1E0,5.4E1,2.7E1,5.3E1,1E0,2.4E1,3E0,4.5E1,8E0,7E0,1.7E1,3.4E1,1.1E1,4E0,4E0,3E0,4E0],"tree_param":{"num_deleted":"0","num_feature":"6","num_nodes":"19","size_leaf_vector":"1"}},{"base_weights":[1.7456025E-3,-7.4707167E-3,1.8937094E-2,-3.096825E-2,3.8951963E-2,-3.3534773E-2,2.690597E-3,2.9355392E-2,3.861256E-3,-3.8272377E-2,-5.594246E-3,1.2635934E-2,1.7113275E-3,-2.1414985E-3,-1.0895024E-3,-3.444899E-4,-1.12617854E-4,3.0941507E-4,7.9622923E-4],"categories":[],"categories_nodes":[],"categories_segments":[],"categories_sizes":[],"default_left":[0,0,0,0,0,0,0,0,0,0,0,0,0,0,0,0,0,0,0],"id":6,"left_children":[1,3,-1,5,7,9,-1,11,-1,13,15,17,-1,-1,-1,-1,-1,-1,-1],"loss_changes":[2.912145E-1,9.06534E-2,0E0,1.3772022E-2,8.017171E-3,6.93395E-3,0E0,1.5221499E-3,0E0,2.5222376E-3,2.3448025E-5,4.9881986E-5,0E0,0E0,0E0,0E0,0E0,0E0,0E0],"parents":[2147483647,0,0,1,1,3,3,4,4,5,5,7,7,9,9,10,10,11,11],"right_children":[2,4,-1,6,8,10,-1,12,-1,14,16,18,-1,-1,-1,-1,-1,-1,-1],"split_conditions":[7.625892E0,1.1496176E-1,1.8937094E-2,7.916732E0,7.1833444E-1,-9.661375E-2,2.690597E-3,3.5004565E-1,3.861256E-3,-1.3123418E-1,-1.4334384E-2,3.0302888E-1,1.7113275E-3,-2.1414985E-3,-1.0895024E-3,-3.444899E-4,-1.12617854E-4,3.0941507E-4,7.9622923E-4],"split_indices":[0,0,0,2,1,0,0,0,0,1,0,0,0,0,0,0,0,0,0],"split_type":[0,0,0,0,0,0,0,0,0,0,0,0,0,0,0,0,0,0,0],"sum_hessian":[8.2E1,8.1E1,1E0,5.4E1,2.7E1,5.3E1,1E0,2.3E1,4E0,4.5E1,8E0,6E0,1.7E1,3.4E1,1.1E1,5E0,3E0,3E0,3E0],"tree_param":{"num_deleted":"0","num_feature":"6","num_nodes":"19","size_leaf_vector":"1"}},{"base_weights":[1.9549248E-3,-7.027902E-3,1.846367E-2,-2.9437974E-2,3.724288E-2,-3.192633E-2,2.623332E-3,2.7921608E-2,3.72682E-3,-3.6429E-2,-5.365323E-3,1.3429251E-2,1.6549546E-3,-1.9350862E-3,-5.026148E-4,-3.768689E-4,-1.5115329E-4,2.9781202E-4,8.360905E-4],"categories":[],"categories_nodes":[],"categories_segments":[],"categories_sizes":[],"default_left":[0,0,0,0,0,0,0,0,0,0,0,0,0,0,0,0,0,0,0],"id":7,"left_children":[1,3,-1,5,7,9,-1,11,-1,13,15,17,-1,-1,-1,-1,-1,-1,-1],"loss_changes":[2.7645853E-1,8.244948E-2,0E0,1.2884498E-2,7.652264E-3,6.262701E-3,0E0,1.3563205E-3,0E0,2.3685247E-3,2.300163E-5,9.7243465E-5,0E0,0E0,0E0,0E0,0E0,0E0,0E0],"parents":[2147483647,0,0,1,1,3,3,4,4,5,5,7,7,9,9,10,10,11,11],"right_children":[2,4,-1,6,8,10,-1,12,-1,14,16,18,-1,-1,-1,-1,-1,-1,-1],"split_conditions":[7.625892E0,1.1496176E-1,1.846367E-2,7.916732E0,7.614425E-1,-9.661375E-2,2.623332E-3,3.7355405E-1,3.72682E-3,3.2144405E-2,-3.7842773E-2,3.0302888E-1,1.6549546E-3,-1.9350862E-3,-5.026148E-4,-3.768689E-4,-1.5115329E-4,2.9781202E-4,8.360905E-4],"split_indices":[0,0,0,2,0,0,0,0,0,1,0,0,0,0,0,0,0,0,0],"split_type":[0,0,0,0,0,0,0,0,0,0,0,0,0,0,0,0,0,0,0],"sum_hessian":[8.2E1,8.1E1,1E0,5.4E1,2.7E1,5.3E1,1E0,2.3E1,4E0,4.5E1,8E0,7E0,1.6E1,4.1E1,4E0,3E0,5E0,3E0,4E0],"tree_param":{"num_deleted":"0","num_feature":"6","num_nodes":"19","size_leaf_vector":"1"}},{"base_weights":[2.1540085E-3,-6.6012233E-3,1.8002076E-2,-2.79723E-2,3.5613436E-2,-3.0384934E-2,2.5577487E-3,2.755067E-2,3.855119E-3,-3.466054E-2,-5.155729E-3,1.2899525E-2,1.6265847E-3,-1.9434929E-3,-9.747496E-4,-3.6273646E-4,-1.4485537E-4,2.8664395E-4,8.0264686E-4],"categories":[],"categories_nodes":[],"categories_segments":[],"categories_sizes":[],"default_left":[0,0,0,0,0,0,0,0,0,0,0,0,0,0,0,0,0,0,0],"id":8,"left_children":[1,3,-1,5,7,9,-1,11,-1,13,15,17,-1,-1,-1,-1,-1,-1,-1],"loss_changes":[2.624479E-1,7.497435E-2,0E0,1.2054119E-2,7.2422177E-3,5.646292E-3,0E0,1.4047995E-3,0E0,2.1787137E-3,2.1649888E-5,8.8765635E-5,0E0,0E0,0E0,0E0,0E0,0E0,0E0],"parents":[2147483647,0,0,1,1,3,3,4,4,5,5,7,7,9,9,10,10,11,11],"right_children":[2,4,-1,6,8,10,-1,12,-1,14,16,18,-1,-1,-1,-1,-1,-1,-1],"split_conditions":[7.625892E0,1.1496176E-1,1.8002076E-2,7.916732E0,9.495096E-1,-9.661375E-2,2.5577487E-3,3.7355405E-1,3.855119E-3,-1.3123418E-1,-3.7842773E-2,3.0302888E-1,1.6265847E-3,-1.9434929E-3,-9.747496E-4,-3.6273646E-4,-1.4485537E-4,2.8664395E-4,8.0264686E-4],"split_indices":[0,0,0,2,0,0,0,0,0,1,0,0,0,0,0,0,0,0,0],"split_type":[0,0,0,0,0,0,0,0,0,0,0,0,0,0,0,0,0,0,0],"sum_hessian":[8.2E1,8.1E1,1E0,5.4E1,2.7E1,5.3E1,1E0,2.4E1,3E0,4.5E1,8E0,7E0,1.7E1,3.4E1,1.1E1,3E0,5E0,3E0,4E0],"tree_param":{"num_deleted":"0","num_feature":"6","num_nodes":"19","size_leaf_vector":"1"}},{"base_weights":[2.331911E-3,-6.201614E-3,1.7552024E-2,-2.6589468E-2,3.4067445E-2,-2.892913E-2,2.4938048E-3,2.6281772E-2,3.7105517E-3,-3.8338568E-2,-1.7321328E-2,1.2390708E-2,1.5497741E-3,-2.0167672E-3,-3.7940394E-4,-1.1271262E-3,-2.4771708E-4,2.7589474E-4,7.7054085E-4],"categories":[],"categories_nodes":[],"categories_segments":[],"categories_sizes":[],"default_left":[0,0,0,0,0,0,0,0,0,0,0,0,0,0,0,0,0,0,0],"id":9,"left_children":[1,3,-1,5,7,9,-1,11,-1,13,15,17,-1,-1,-1,-1,-1,-1,-1],"loss_changes":[2.4916123E-1,6.8227805E-2,0E0,1.1282563E-2,6.80086E-3,5.2339584E-3,0E0,1.2529045E-3,0E0,1.4745891E-3,1.5671491E-3,8.1017846E-5,0E0,0E0,0E0,0E0,0E0,0E0,0E0],"parents":[2147483647,0,0,1,1,3,3,4,4,5,5,7,7,9,9,10,10,11,11],"right_children":[2,4,-1,6,8,10,-1,12,-1,14,16,18,-1,-1,-1,-1,-1,-1,-1],"split_conditions":[7.625892E0,1.1496176E-1,1.7552024E-2,7.916732E0,9.495096E-1,-4.257312E-1,2.4938048E-3,3.7355405E-1,3.7105517E-3,2.1252498E-2,-9.661375E-2,3.0302888E-1,1.5497741E-3,-2.0167672E-3,-3.7940394E-4,-1.1271262E-3,-2.4771708E-4,2.7589474E-4,7.7054085E-4],"split_indices":[0,0,0,2,0,0,0,0,0,1,0,0,0,0,0,0,0,0,0],"split_type":[0,0,0,0,0,0,0,0,0,0,0,0,0,0,0,0,0,0,0],"sum_hessian":[8.2E1,8.1E1,1E0,5.4E1,2.7E1,5.3E1,1E0,2.4E1,3E0,2.8E1,2.5E1,7E0,1.7E1,2.6E1,2E0,1.7E1,8E0,3E0,4E0],"tree_param":{"num_deleted":"0","num_feature":"6","num_nodes":"19","size_leaf_vector":"1"}},{"base_weights":[2.4873812E-3,-5.830199E-3,1.7113224E-2,-2.5283217E-2,3.258931E-2,-2.7552506E-2,2.4314597E-3,2.5975347E-2,3.9523607E-3,-3.6504265E-2,-1.6508142E-2,1.19019775E-2,1.5266926E-3,-1.9196635E-3,-3.6675707E-4,-1.073901E-3,-2.3670743E-4,2.6554868E-4,7.3971925E-4],"categories":[],"categories_nodes":[],"categories_segments":[],"categories_sizes":[],"default_left":[0,0,0,0,0,0,0,0,0,0,0,0,0,0,0,0,0,0,0],"id":10,"left_children":[1,3,-1,5,7,9,-1,11,-1,13,15,17,-1,-1,-1,-1,-1,-1,-1],"loss_changes":[2.365637E-1,6.2108744E-2,0E0,1.0564934E-2,6.550301E-3,4.736174E-3,0E0,1.3045799E-3,0E0,1.3162978E-3,1.4197179E-3,7.39384E-5,0E0,0E0,0E0,0E0,0E0,0E0,0E0],"parents":[2147483647,0,0,1,1,3,3,4,4,5,5,7,7,9,9,10,10,11,11],"right_children":[2,4,-1,6,8,10,-1,12,-1,14,16,18,-1,-1,-1,-1,-1,-1,-1],"split_conditions":[7.625892E0,1.1496176E-1,1.7113224E-2,7.916732E0,1.5254651E0,-4.257312E-1,2.4314597E-3,3.7355405E-1,3.9523607E-3,2.1252498E-2,-9.661375E-2,3.0302888E-1,1.5266926E-3,-1.9196635E-3,-3.6675707E-4,-1.073901E-3,-2.3670743E-4,2.6554868E-4,7.3971925E-4],"split_indices":[0,0,0,2,0,0,0,0,0,1,0,0,0,0,0,0,0,0,0],"split_type":[0,0,0,0,0,0,0,0,0,0,0,0,0,0,0,0,0,0,0],"sum_hessian":[8.2E1,8.1E1,1E0,5.4E1,2.7E1,5.3E1,1E0,2.5E1,2E0,2.8E1,2.5E1,7E0,1.8E1,2.6E1,2E0,1.7E1,8E0,3E0,4E0],"tree_param":{"num_deleted":"0","num_feature":"6","num_nodes":"19","size_leaf_vector":"1"}},{"base_weights":[2.6332766E-3,-5.4738265E-3,1.6685395E-2,-2.4040248E-2,3.1191424E-2,-2.6241492E-2,2.3706735E-3,2.477396E-2,3.8206156E-3,-3.4757894E-2,-1.5733141E-2,1.1432536E-2,1.4543753E-3,-1.8272352E-3,-3.545319E-4,-1.0231888E-3,-2.2618721E-4,2.5559068E-4,7.101304E-4],"categories":[],"categories_nodes":[],"categories_segments":[],"categories_sizes":[],"default_left":[0,0,0,0,0,0,0,0,0,0,0,0,0,0,0,0,0,0,0],"id":11,"left_children":[1,3,-1,5,7,9,-1,11,-1,13,15,17,-1,-1,-1,-1,-1,-1,-1],"loss_changes":[2.2460331E-1,5.657073E-2,0E0,9.894989E-3,6.232662E-3,4.28579E-3,0E0,1.1637267E-3,0E0,1.1745244E-3,1.2861434E-3,6.746978E-5,0E0,0E0,0E0,0E0,0E0,0E0,0E0],"parents":[2147483647,0,0,1,1,3,3,4,4,5,5,7,7,9,9,10,10,11,11],"right_children":[2,4,-1,6,8,10,-1,12,-1,14,16,18,-1,-1,-1,-1,-1,-1,-1],"split_conditions":[7.625892E0,1.1496176E-1,1.6685395E-2,7.916732E0,1.5254651E0,-4.257312E-1,2.3706735E-3,3.7355405E-1,3.8206156E-3,2.1252498E-2,-9.661375E-2,3.0302888E-1,1.4543753E-3,-1.8272352E-3,-3.545319E-4,-1.0231888E-3,-2.2618721E-4,2.5559068E-4,7.101304E-4],"split_indices":[0,0,0,2,0,0,0,0,0,1,0,0,0,0,0,0,0,0,0],"split_type":[0,0,0,0,0,0,0,0,0,0,0,0,0,0,0,0,0,0,0],"sum_hessian":[8.2E1,8.1E1,1E0,5.4E1,2.7E1,5.3E1,1E0,2.5E1,2E0,2.8E1,2.5E1,7E0,1.8E1,2.6E1,2E0,1.7E1,8E0,3E0,4E0],"tree_param":{"num_deleted":"0","num_feature":"6","num_nodes":"19","size_leaf_vector":"1"}},{"base_weights":[2.7650548E-3,-5.136961E-3,1.6268259E-2,-2.2381222E-2,3.0819172E-2,-2.4469176E-2,2.3114067E-3,2.4420878E-2,3.6932619E-3,-2.8493816E-2,-3.5089157E-3,1.2005419E-2,1.3854842E-3,-1.491223E-3,2.6011096E-5,-2.4332455E-4,6.404619E-5,2.644236E-4,6.8172516E-4],"categories":[],"categories_nodes":[],"categories_segments":[],"categories_sizes":[],"default_left":[0,0,0,0,0,0,0,0,0,0,0,0,0,0,0,0,0,0,0],"id":12,"left_children":[1,3,-1,5,7,9,-1,11,-1,13,15,17,-1,-1,-1,-1,-1,-1,-1],"loss_changes":[2.1325427E-1,5.15328E-2,0E0,9.153347E-3,5.6325253E-3,4.539676E-3,0E0,6.881356E-4,0E0,1.7914549E-3,7.125929E-5,4.4916524E-6,0E0,0E0,0E0,0E0,0E0,0E0,0E0],"parents":[2147483647,0,0,1,1,3,3,4,4,5,5,7,7,9,9,10,10,11,11],"right_children":[2,4,-1,6,8,10,-1,12,-1,14,16,18,-1,-1,-1,-1,-1,-1,-1],"split_conditions":[7.625892E0,1.5022434E-1,1.6268259E-2,7.916732E0,1.5254651E0,-9.661375E-2,2.3114067E-3,3.7355405E-1,3.6932619E-3,9.749584E-2,2.09282E-2,3.0302888E-1,1.3854842E-3,-1.491223E-3,2.6011096E-5,-2.4332455E-4,6.404619E-5,2.644236E-4,6.8172516E-4],"split_indices":[0,0,0,2,0,0,0,0,0,1,0,0,0,0,0,0,0,0,0],"split_type":[0,0,0,0,0,0,0,0,0,0,0,0,0,0,0,0,0,0,0],"sum_hessian":[8.2E1,8.1E1,1E0,5.5E1,2.6E1,5.4E1,1E0,2.4E1,2E0,4.5E1,9E0,6E0,1.8E1,4.3E1,2E0,7E0,2E0,2E0,4E0],"tree_param":{"num_deleted":"0","num_feature":"6","num_nodes":"19","size_leaf_vector":"1"}},{"base_weights":[2.9034317E-3,-4.7985036E-3,1.5861554E-2,-2.125025E-2,2.950136E-2,-2.3275616E-2,2.2536216E-3,2.32931E-2,3.570153E-3,-3.170775E-2,-1.335682E-2,1.154031E-2,1.3198563E-3,-1.6922016E-3,-4.947482E-4,-2.6240162E-4,-9.746991E-4,2.5560957E-4,6.5445603E-4],"categories":[],"categories_nodes":[],"categories_segments":[],"categories_sizes":[],"default_left":[0,0,0,0,0,0,0,0,0,0,0,0,0,0,0,0,0,0,0],"id":13,"left_children":[1,3,-1,5,7,9,-1,11,-1,13,15,17,-1,-1,-1,-1,-1,-1,-1],"loss_changes":[2.024595E-1,4.6898905E-2,0E0,8.5714385E-3,5.360488E-3,4.1764975E-3,0E0,6.073937E-4,0E0,1.0164678E-3,1.2413482E-3,2.777495E-6,0E0,0E0,0E0,0E0,0E0,0E0,0E0],"parents":[2147483647,0,0,1,1,3,3,4,4,5,5,7,7,9,9,10,10,11,11],"right_children":[2,4,-1,6,8,10,-1,12,-1,14,16,18,-1,-1,-1,-1,-1,-1,-1],"split_conditions":[7.625892E0,1.5022434E-1,1.5861554E-2,7.916732E0,1.5254651E0,-4.257312E-1,2.2536216E-3,3.7355405E-1,3.570153E-3,-4.4098936E-2,-2.1836942E-1,3.0302888E-1,1.3198563E-3,-1.6922016E-3,-4.947482E-4,-2.6240162E-4,-9.746991E-4,2.5560957E-4,6.5445603E-4],"split_indices":[0,0,0,2,0,0,0,0,0,1,1,0,0,0,0,0,0,0,0],"split_type":[0,0,0,0,0,0,0,0,0,0,0,0,0,0,0,0,0,0,0],"sum_hessian":[8.2E1,8.1E1,1E0,5.5E1,2.6E1,5.4E1,1E0,2.4E1,2E0,2.8E1,2.6E1,6E0,1.8E1,2.5E1,3E0,1.2E1,1.4E1,2E0,4E0],"tree_param":{"num_deleted":"0","num_feature":"6","num_nodes":"19","size_leaf_vector":"1"}},{"base_weights":[3.005141E-3,-4.50212E-3,1.5465014E-2,-2.064904E-2,2.7375834E-2,-2.2659045E-2,2.197281E-3,2.1517482E-2,3.4511478E-3,-3.0197777E-2,-1.3378959E-2,7.958767E-3,1.2183379E-3,-1.5881987E-3,-3.018024E-4,-8.7648985E-4,-1.7953673E-4,1.0033548E-4,4.3739183E-4],"categories":[],"categories_nodes":[],"categories_segments":[],"categories_sizes":[],"default_left":[0,0,0,0,0,0,0,0,0,0,0,0,0,0,0,0,0,0,0],"id":14,"left_children":[1,3,-1,5,7,9,-1,11,-1,13,15,17,-1,-1,-1,-1,-1,-1,-1],"loss_changes":[1.9224583E-1,4.2773213E-2,0E0,8.136721E-3,5.346339E-3,3.3738296E-3,0E0,8.1051607E-4,0E0,9.056926E-4,9.934176E-4,1.0625139E-5,0E0,0E0,0E0,0E0,0E0,0E0,0E0],"parents":[2147483647,0,0,1,1,3,3,4,4,5,5,7,7,9,9,10,10,11,11],"right_children":[2,4,-1,6,8,10,-1,12,-1,14,16,18,-1,-1,-1,-1,-1,-1,-1],"split_conditions":[7.625892E0,1.1496176E-1,1.5465014E-2,7.916732E0,1.5254651E0,-4.257312E-1,2.197281E-3,3.2653728E-1,3.4511478E-3,2.1252498E-2,-9.661375E-2,1.5022434E-1,1.2183379E-3,-1.5881987E-3,-3.018024E-4,-8.7648985E-4,-1.7953673E-4,1.0033548E-4,4.3739183E-4],"split_indices":[0,0,0,2,0,0,0,0,0,1,0,0,0,0,0,0,0,0,0],"split_type":[0,0,0,0,0,0,0,0,0,0,0,0,0,0,0,0,0,0,0],"sum_hessian":[8.2E1,8.1E1,1E0,5.4E1,2.7E1,5.3E1,1E0,2.5E1,2E0,2.8E1,2.5E1,5E0,2E1,2.6E1,2E0,1.7E1,8E0,1E0,4E0],"tree_param":{"num_deleted":"0","num_feature":"6","num_nodes":"19","size_leaf_vector":"1"}},{"base_weights":[3.0949246E-3,-4.2226436E-3,1.5078388E-2,-1.9630205E-2,2.6193017E-2,-2.1580651E-2,2.142349E-3,1.8842386E-2,2.8118722E-3,-2.8753063E-2,-1.275063E-2,2.2329568E-4,2.0683505E-2,-1.5344904E-3,-4.4879765E-4,-2.5931446E-4,-8.9760305E-4,7.746322E-4,1.2422095E-3],"categories":[],"categories_nodes":[],"categories_segments":[],"categories_sizes":[],"default_left":[0,0,0,0,0,0,0,0,0,0,0,0,0,0,0,0,0,0,0],"id":15,"left_children":[1,3,-1,5,7,9,-1,11,-1,13,15,-1,17,-1,-1,-1,-1,-1,-1],"loss_changes":[1.8255332E-1,3.8941924E-2,0E0,7.62688E-3,5.124029E-3,3.0533373E-3,0E0,5.4288004E-4,0E0,8.353237E-4,9.2987576E-4,0E0,6.8645924E-5,0E0,0E0,0E0,0E0,0E0,0E0],"parents":[2147483647,0,0,1,1,3,3,4,4,5,5,7,7,9,9,10,10,12,12],"right_children":[2,4,-1,6,8,10,-1,12,-1,14,16,-1,18,-1,-1,-1,-1,-1,-1],"split_conditions":[7.625892E0,1.1496176E-1,1.5078388E-2,7.916732E0,7.1833444E-1,-4.257312E-1,2.142349E-3,3.0302888E-1,2.8118722E-3,-4.4098936E-2,-2.1836942E-1,2.2329568E-4,5.146044E-1,-1.5344904E-3,-4.4879765E-4,-2.5931446E-4,-8.9760305E-4,7.746322E-4,1.2422095E-3],"split_indices":[0,0,0,2,1,0,0,0,0,1,1,0,0,0,0,0,0,0,0],"split_type":[0,0,0,0,0,0,0,0,0,0,0,0,0,0,0,0,0,0,0],"sum_hessian":[8.2E1,8.1E1,1E0,5.4E1,2.7E1,5.3E1,1E0,2.3E1,4E0,2.8E1,2.5E1,3E0,2E1,2.5E1,3E0,1.1E1,1.4E1,1.1E1,9E0],"tree_param":{"num_deleted":"0","num_feature":"6","num_nodes":"19","size_leaf_vector":"1"}},{"base_weights":[3.1706912E-3,-3.9620707E-3,1.4701429E-2,-1.8666836E-2,2.5063794E-2,-2.0559771E-2,2.08879E-3,1.9509362E-2,3.2423798E-3,-2.3564672E-2,-2.9169603E-3,9.201442E-3,1.1411365E-3,-1.3487271E-3,-5.8277504E-4,-2.1523684E-4,-5.3027647E-6,2.1492215E-4,5.6417764E-4],"categories":[],"categories_nodes":[],"categories_segments":[],"categories_sizes":[],"default_left":[0,0,0,0,0,0,0,0,0,0,0,0,0,0,0,0,0,0,0],"id":16,"left_children":[1,3,-1,5,7,9,-1,11,-1,13,15,17,-1,-1,-1,-1,-1,-1,-1],"loss_changes":[1.7335843E-1,3.5466976E-2,0E0,7.151669E-3,4.9222037E-3,2.7940683E-3,0E0,6.7800004E-4,0E0,1.5535969E-3,3.465164E-5,3.3166958E-5,0E0,0E0,0E0,0E0,0E0,0E0,0E0],"parents":[2147483647,0,0,1,1,3,3,4,4,5,5,7,7,9,9,10,10,11,11],"right_children":[2,4,-1,6,8,10,-1,12,-1,14,16,18,-1,-1,-1,-1,-1,-1,-1],"split_conditions":[7.625892E0,1.1496176E-1,1.4701429E-2,7.916732E0,1.5254651E0,-9.661375E-2,2.08879E-3,3.7355405E-1,3.2423798E-3,-1.3123418E-1,-1.4334384E-2,3.0302888E-1,1.1411365E-3,-1.3487271E-3,-5.8277504E-4,-2.1523684E-4,-5.3027647E-6,2.1492215E-4,5.6417764E-4],"split_indices":[0,0,0,2,0,0,0,0,0,1,0,0,0,0,0,0,0,0,0],"split_type":[0,0,0,0,0,0,0,0,0,0,0,0,0,0,0,0,0,0,0],"sum_hessian":[8.2E1,8.1E1,1E0,5.4E1,2.7E1,5.3E1,1E0,2.5E1,2E0,4.5E1,8E0,7E0,1.8E1,3.4E1,1.1E1,5E0,3E0,3E0,4E0],"tree_param":{"num_deleted":"0","num_feature":"6","num_nodes":"19","size_leaf_vector":"1"}},{"base_weights":[3.2507218E-3,-3.7017777E-3,1.4333892E-2,-1.7734645E-2,2.3994988E-2,-1.9571634E-2,2.0365703E-3,1.8607754E-2,3.134301E-3,-2.6213638E-2,-1.1410489E-2,8.838761E-3,1.0870829E-3,-1.3581067E-3,8.605421E-6,-2.0537862E-4,-8.2460616E-4,1.5706183E-4,5.107198E-4],"categories":[],"categories_nodes":[],"categories_segments":[],"categories_sizes":[],"default_left":[0,0,0,0,0,0,0,0,0,0,0,0,0,0,0,0,0,0,0],"id":17,"left_children":[1,3,-1,5,7,9,-1,11,-1,13,15,17,-1,-1,-1,-1,-1,-1,-1],"loss_changes":[1.6461493E-1,3.2296073E-2,0E0,6.7042653E-3,4.669808E-3,2.628034E-3,0E0,6.03823E-4,0E0,7.304512E-4,8.971372E-4,3.061589E-5,0E0,0E0,0E0,0E0,0E0,0E0,0E0],"parents":[2147483647,0,0,1,1,3,3,4,4,5,5,7,7,9,9,10,10,11,11],"right_children":[2,4,-1,6,8,10,-1,12,-1,14,16,18,-1,-1,-1,-1,-1,-1,-1],"split_conditions":[7.625892E0,1.1496176E-1,1.4333892E-2,7.916732E0,1.5254651E0,-4.257312E-1,2.0365703E-3,3.7355405E-1,3.134301E-3,9.749584E-2,-2.1836942E-1,1.6197854E-1,1.0870829E-3,-1.3581067E-3,8.605421E-6,-2.0537862E-4,-8.2460616E-4,1.5706183E-4,5.107198E-4],"split_indices":[0,0,0,2,0,0,0,0,0,1,1,0,0,0,0,0,0,0,0],"split_type":[0,0,0,0,0,0,0,0,0,0,0,0,0,0,0,0,0,0,0],"sum_hessian":[8.2E1,8.1E1,1E0,5.4E1,2.7E1,5.3E1,1E0,2.5E1,2E0,2.8E1,2.5E1,7E0,1.8E1,2.7E1,1E0,1.1E1,1.4E1,2E0,5E0],"tree_param":{"num_deleted":"0","num_feature":"6","num_nodes":"19","size_leaf_vector":"1"}},{"base_weights":[3.3156576E-3,-3.461247E-3,1.3975546E-2,-1.7218953E-2,2.2275904E-2,-1.9042447E-2,1.985656E-3,1.5670884E-2,2.5422913E-3,-2.4949491E-2,-1.142858E-2,1.8569588E-4,8.885774E-4,-1.4044129E-3,-6.5996015E-4,-1.9596556E-4,-8.5243833E-4],"categories":[],"categories_nodes":[],"categories_segments":[],"categories_sizes":[],"default_left":[0,0,0,0,0,0,0,0,0,0,0,0,0,0,0,0,0],"id":18,"left_children":[1,3,-1,5,7,9,-1,11,-1,13,15,-1,-1,-1,-1,-1,-1],"loss_changes":[1.563226E-1,2.941847E-2,0E0,6.362263E-3,4.6756435E-3,2.0985603E-3,0E0,5.619372E-4,0E0,6.988179E-4,9.882683E-4,0E0,0E0,0E0,0E0,0E0,0E0],"parents":[2147483647,0,0,1,1,3,3,4,4,5,5,7,7,9,9,10,10],"right_children":[2,4,-1,6,8,10,-1,12,-1,14,16,-1,-1,-1,-1,-1,-1],"split_conditions":[7.625892E0,2.09282E-2,1.3975546E-2,7.916732E0,7.614425E-1,-4.257312E-1,1.985656E-3,3.0302888E-1,2.5422913E-3,-2.1836942E-1,-2.1836942E-1,1.8569588E-4,8.885774E-4,-1.4044129E-3,-6.5996015E-4,-1.9596556E-4,-8.5243833E-4],"split_indices":[0,0,0,2,0,0,0,0,0,1,1,0,0,0,0,0,0],"split_type":[0,0,0,0,0,0,0,0,0,0,0,0,0,0,0,0,0],"sum_hessian":[8.2E1,8.1E1,1E0,5.3E1,2.8E1,5.2E1,1E0,2.4E1,4E0,2.8E1,2.4E1,4E0,2E1,2.1E1,7E0,1.1E1,1.3E1],"tree_param":{"num_deleted":"0","num_feature":"6","num_nodes":"17","size_leaf_vector":"1"}},{"base_weights":[3.3482485E-3,-3.2578248E-3,1.3626157E-2,-1.5690494E-2,2.2649113E-2,-1.7383786E-2,1.9360147E-3,1.7392846E-2,2.9450813E-3,-2.0464245E-2,-1.4753013E-3,4.3284902E-4,9.847955E-4,-1.1809795E-3,-4.7778996E-4,-1.6828427E-4,5.4410997E-5],"categories":[],"categories_nodes":[],"categories_segments":[],"categories_sizes":[],"default_left":[0,0,0,0,0,0,0,0,0,0,0,0,0,0,0,0,0],"id":19,"left_children":[1,3,-1,5,7,9,-1,11,-1,13,15,-1,-1,-1,-1,-1,-1],"loss_changes":[1.4847754E-1,2.6766952E-2,0E0,5.8325743E-3,4.1204607E-3,2.6651062E-3,0E0,3.3247424E-4,0E0,1.3576113E-3,5.2123007E-5,0E0,0E0,0E0,0E0,0E0,0E0],"parents":[2147483647,0,0,1,1,3,3,4,4,5,5,7,7,9,9,10,10],"right_children":[2,4,-1,6,8,10,-1,12,-1,14,16,-1,-1,-1,-1,-1,-1],"split_conditions":[7.625892E0,1.5022434E-1,1.3626157E-2,7.916732E0,1.5254651E0,-9.661375E-2,1.9360147E-3,3.7355405E-1,2.9450813E-3,-1.3123418E-1,-1.4334384E-2,4.3284902E-4,9.847955E-4,-1.1809795E-3,-4.7778996E-4,-1.6828427E-4,5.4410997E-5],"split_indices":[0,0,0,2,0,0,0,0,0,1,0,0,0,0,0,0,0],"split_type":[0,0,0,0,0,0,0,0,0,0,0,0,0,0,0,0,0],"sum_hessian":[8.2E1,8.1E1,1E0,5.5E1,2.6E1,5.4E1,1E0,2.4E1,2E0,4.5E1,9E0,6E0,1.8E1,3.4E1,1.1E1,5E0,4E0],"tree_param":{"num_deleted":"0","num_feature":"6","num_nodes":"17","size_leaf_vector":"1"}},{"base_weights":[3.3995353E-3,-3.0397398E-3,1.3285503E-2,-1.4903054E-2,2.1678235E-2,-1.6546829E-2,1.8876143E-3,1.6579904E-2,2.8469122E-3,-1.9477095E-2,-1.4129229E-3,4.1429838E-4,1.8762939E-2,-1.0294303E-3,1.6587191E-4,-1.6127234E-4,5.2234533E-5,6.035454E-4,1.0461519E-3],"categories":[],"categories_nodes":[],"categories_segments":[],"categories_sizes":[],"default_left":[0,0,0,0,0,0,0,0,0,0,0,0,0,0,0,0,0,0,0],"id":20,"left_children":[1,3,-1,5,7,9,-1,11,-1,13,15,-1,17,-1,-1,-1,-1,-1,-1],"loss_changes":[1.4100213E-1,2.4368515E-2,0E0,5.4716766E-3,3.909682E-3,2.4115331E-3,0E0,2.971799E-4,0E0,1.2337714E-3,4.7914436E-5,0E0,2.20933E-5,0E0,0E0,0E0,0E0,0E0,0E0],"parents":[2147483647,0,0,1,1,3,3,4,4,5,5,7,7,9,9,10,10,12,12],"right_children":[2,4,-1,6,8,10,-1,12,-1,14,16,-1,18,-1,-1,-1,-1,-1,-1],"split_conditions":[7.625892E0,1.5022434E-1,1.3285503E-2,7.916732E0,1.5254651E0,-9.661375E-2,1.8876143E-3,3.7355405E-1,2.8469122E-3,9.749584E-2,-1.4334384E-2,4.1429838E-4,-5.499084E-2,-1.0294303E-3,1.6587191E-4,-1.6127234E-4,5.2234533E-5,6.035454E-4,1.0461519E-3],"split_indices":[0,0,0,2,0,0,0,0,0,1,0,0,1,0,0,0,0,0,0],"split_type":[0,0,0,0,0,0,0,0,0,0,0,0,0,0,0,0,0,0,0],"sum_hessian":[8.2E1,8.1E1,1E0,5.5E1,2.6E1,5.4E1,1E0,2.4E1,2E0,4.5E1,9E0,6E0,1.8E1,4.3E1,2E0,5E0,4E0,6E0,1.2E1],"tree_param":{"num_deleted":"0","num_feature":"6","num_nodes":"19","size_leaf_vector":"1"}},{"base_weights":[3.459818E-3,-2.8167036E-3,1.2953365E-2,-1.41415605E-2,2.077621E-2,-1.573717E-2,1.8404238E-3,1.5833471E-2,2.7520151E-3,-2.1801472E-2,-8.640801E-3,7.930855E-3,1.791162E-2,-1.2318873E-3,-5.638268E-4,-9.806062E-5,-6.9268624E-4,1.723446E-4,4.5175315E-4,5.4363784E-4,9.824437E-4],"categories":[],"categories_nodes":[],"categories_segments":[],"categories_sizes":[],"default_left":[0,0,0,0,0,0,0,0,0,0,0,0,0,0,0,0,0,0,0,0,0],"id":21,"left_children":[1,3,-1,5,7,9,-1,11,-1,13,15,17,19,-1,-1,-1,-1,-1,-1,-1,-1],"loss_changes":[1.3388877E-1,2.220309E-2,0E0,5.1318575E-3,3.7011998E-3,2.1785172E-3,0E0,2.685152E-4,0E0,5.878676E-4,9.1297505E-4,3.5157136E-6,1.8700026E-5,0E0,0E0,0E0,0E0,0E0,0E0,0E0,0E0],"parents":[2147483647,0,0,1,1,3,3,4,4,5,5,7,7,9,9,10,10,11,11,12,12],"right_children":[2,4,-1,6,8,10,-1,12,-1,14,16,18,20,-1,-1,-1,-1,-1,-1,-1,-1],"split_conditions":[7.625892E0,1.5022434E-1,1.2953365E-2,7.916732E0,1.5254651E0,-4.257312E-1,1.8404238E-3,3.7355405E-1,2.7520151E-3,-2.1836942E-1,-2.1836942E-1,3.0302888E-1,-6.588274E-2,-1.2318873E-3,-5.638268E-4,-9.806062E-5,-6.9268624E-4,1.723446E-4,4.5175315E-4,5.4363784E-4,9.824437E-4],"split_indices":[0,0,0,2,0,0,0,0,0,1,1,0,1,0,0,0,0,0,0,0,0],"split_type":[0,0,0,0,0,0,0,0,0,0,0,0,0,0,0,0,0,0,0,0,0],"sum_hessian":[8.2E1,8.1E1,1E0,5.5E1,2.6E1,5.4E1,1E0,2.4E1,2E0,2.8E1,2.6E1,6E0,1.8E1,2.1E1,7E0,1.2E1,1.4E1,2E0,4E0,5E0,1.3E1],"tree_param":{"num_deleted":"0","num_feature":"6","num_nodes":"21","size_leaf_vector":"1"}},{"base_weights":[3.492964E-3,-2.625185E-3,1.262953E-2,-1.4063821E-2,1.8764867E-2,-1.568345E-2,1.7944131E-3,1.4243122E-2,2.660281E-3,-2.077332E-2,-9.151864E-3,5.1900405E-3,1.6582573E-2,-1.2033609E-3,-6.054096E-4,-1.14344155E-4,-7.191214E-4,1.0615463E-4,2.9961005E-4,6.6095666E-4,1.0710502E-3],"categories":[],"categories_nodes":[],"categories_segments":[],"categories_sizes":[],"default_left":[0,0,0,0,0,0,0,0,0,0,0,0,0,0,0,0,0,0,0,0,0],"id":22,"left_children":[1,3,-1,5,7,9,-1,11,-1,13,15,17,19,-1,-1,-1,-1,-1,-1,-1,-1],"loss_changes":[1.2715647E-1,2.0327093E-2,0E0,4.9316594E-3,3.758422E-3,1.5718667E-3,0E0,4.8577506E-4,0E0,5.363086E-4,8.6480216E-4,4.499292E-6,5.8581587E-5,0E0,0E0,0E0,0E0,0E0,0E0,0E0,0E0],"parents":[2147483647,0,0,1,1,3,3,4,4,5,5,7,7,9,9,10,10,11,11,12,12],"right_children":[2,4,-1,6,8,10,-1,12,-1,14,16,18,20,-1,-1,-1,-1,-1,-1,-1,-1],"split_conditions":[7.625892E0,2.09282E-2,1.262953E-2,7.916732E0,1.5254651E0,-4.257312E-1,1.7944131E-3,3.2653728E-1,2.660281E-3,-2.8372085E-1,-2.1836942E-1,1.5022434E-1,5.7337534E-1,-1.2033609E-3,-6.054096E-4,-1.14344155E-4,-7.191214E-4,1.0615463E-4,2.9961005E-4,6.6095666E-4,1.0710502E-3],"split_indices":[0,0,0,2,0,0,0,0,0,1,1,0,0,0,0,0,0,0,0,0,0],"split_type":[0,0,0,0,0,0,0,0,0,0,0,0,0,0,0,0,0,0,0,0,0],"sum_hessian":[8.2E1,8.1E1,1E0,5.3E1,2.8E1,5.2E1,1E0,2.6E1,2E0,2.8E1,2.4E1,6E0,2E1,1.9E1,9E0,1.1E1,1.3E1,2E0,4E0,1.4E1,6E0],"tree_param":{"num_deleted":"0","num_feature":"6","num_nodes":"21","size_leaf_vector":"1"}},{"base_weights":[3.5180727E-3,-2.445752E-3,1.23137925E-2,-1.3376331E-2,1.7992076E-2,-1.4949132E-2,1.7495528E-3,1.23089235E-2,2.140471E-3,-1.9797025E-2,-8.727608E-3,7.4767047E-3,8.0971513E-4,-1.0296259E-3,6.191824E-5,-1.09103385E-4,-6.8573357E-4,1.5553743E-4,4.5357455E-4],"categories":[],"categories_nodes":[],"categories_segments":[],"categories_sizes":[],"default_left":[0,0,0,0,0,0,0,0,0,0,0,0,0,0,0,0,0,0,0],"id":23,"left_children":[1,3,-1,5,7,9,-1,11,-1,13,15,17,-1,-1,-1,-1,-1,-1,-1],"loss_changes":[1.207668E-1,1.8559245E-2,0E0,4.6309885E-3,3.563244E-3,1.4257673E-3,0E0,3.4829532E-4,0E0,5.1077176E-4,7.861493E-4,6.2296866E-5,0E0,0E0,0E0,0E0,0E0,0E0,0E0],"parents":[2147483647,0,0,1,1,3,3,4,4,5,5,7,7,9,9,10,10,11,11],"right_children":[2,4,-1,6,8,10,-1,12,-1,14,16,18,-1,-1,-1,-1,-1,-1,-1],"split_conditions":[7.625892E0,2.09282E-2,1.23137925E-2,7.916732E0,7.1833444E-1,-4.257312E-1,1.7495528E-3,4.91096E-1,2.140471E-3,9.749584E-2,-2.1836942E-1,3.0302888E-1,8.0971513E-4,-1.0296259E-3,6.191824E-5,-1.09103385E-4,-6.8573357E-4,1.5553743E-4,4.5357455E-4],"split_indices":[0,0,0,2,1,0,0,0,0,1,1,0,0,0,0,0,0,0,0],"split_type":[0,0,0,0,0,0,0,0,0,0,0,0,0,0,0,0,0,0,0],"sum_hessian":[8.2E1,8.1E1,1E0,5.3E1,2.8E1,5.2E1,1E0,2.4E1,4E0,2.8E1,2.4E1,1.2E1,1.2E1,2.7E1,1E0,1.1E1,1.3E1,4E0,8E0],"tree_param":{"num_deleted":"0","num_feature":"6","num_nodes":"19","size_leaf_vector":"1"}},{"base_weights":[3.5332548E-3,-2.2802164E-3,1.20059475E-2,-1.2707753E-2,1.7215205E-2,-1.4234929E-2,1.7058142E-3,1.29342815E-2,2.500256E-3,-1.8840544E-2,-8.323018E-3,4.7700363E-3,1.5039778E-2,-1.0972942E-3,-5.3729065E-4,-1.0410268E-4,-6.538958E-4,9.74315E-5,2.7544363E-4,5.950123E-4,9.809405E-4],"categories":[],"categories_nodes":[],"categories_segments":[],"categories_sizes":[],"default_left":[0,0,0,0,0,0,0,0,0,0,0,0,0,0,0,0,0,0,0,0,0],"id":24,"left_children":[1,3,-1,5,7,9,-1,11,-1,13,15,17,19,-1,-1,-1,-1,-1,-1,-1,-1],"loss_changes":[1.14704415E-1,1.6888482E-2,0E0,4.3471036E-3,3.4239823E-3,1.2862729E-3,0E0,3.9238436E-4,0E0,4.9314275E-4,7.146497E-4,3.857145E-6,6.8427995E-5,0E0,0E0,0E0,0E0,0E0,0E0,0E0,0E0],"parents":[2147483647,0,0,1,1,3,3,4,4,5,5,7,7,9,9,10,10,11,11,12,12],"right_children":[2,4,-1,6,8,10,-1,12,-1,14,16,18,20,-1,-1,-1,-1,-1,-1,-1,-1],"split_conditions":[7.625892E0,2.09282E-2,1.20059475E-2,7.916732E0,1.5254651E0,-4.257312E-1,1.7058142E-3,3.2653728E-1,2.500256E-3,-2.8372085E-1,-2.1836942E-1,1.5022434E-1,5.7337534E-1,-1.0972942E-3,-5.3729065E-4,-1.0410268E-4,-6.538958E-4,9.74315E-5,2.7544363E-4,5.950123E-4,9.809405E-4],"split_indices":[0,0,0,2,0,0,0,0,0,1,1,0,0,0,0,0,0,0,0,0,0],"split_type":[0,0,0,0,0,0,0,0,0,0,0,0,0,0,0,0,0,0,0,0,0],"sum_hessian":[8.2E1,8.1E1,1E0,5.3E1,2.8E1,5.2E1,1E0,2.6E1,2E0,2.8E1,2.4E1,6E0,2E1,1.9E1,9E0,1.1E1,1.3E1,2E0,4E0,1.4E1,6E0],"tree_param":{"num_deleted":"0","num_feature":"6","num_nodes":"21","size_leaf_vector":"1"}},{"base_weights":[3.5465688E-3,-2.1203263E-3,1.17058E-2,-1.2085086E-2,1.6507858E-2,-1.3568328E-2,1.6631689E-3,1.2359742E-2,2.416914E-3,-2.1152232E-2,-1.0018044E-2,1.4185831E-4,1.3892487E-2,-1.1564672E-3,-4.7192778E-4,-1.6420703E-4,-6.499844E-4,5.5317994E-4,9.389E-4],"categories":[],"categories_nodes":[],"categories_segments":[],"categories_sizes":[],"default_left":[0,0,0,0,0,0,0,0,0,0,0,0,0,0,0,0,0,0,0],"id":25,"left_children":[1,3,-1,5,7,9,-1,11,-1,13,15,-1,17,-1,-1,-1,-1,-1,-1],"loss_changes":[1.08945265E-1,1.542078E-2,0E0,4.083517E-3,3.2316027E-3,1.2151217E-3,0E0,3.546686E-4,0E0,1.5224097E-4,7.2027463E-4,0E0,1.1012098E-4,0E0,0E0,0E0,0E0,0E0,0E0],"parents":[2147483647,0,0,1,1,3,3,4,4,5,5,7,7,9,9,10,10,12,12],"right_children":[2,4,-1,6,8,10,-1,12,-1,14,16,-1,18,-1,-1,-1,-1,-1,-1],"split_conditions":[7.625892E0,2.09282E-2,1.17058E-2,7.916732E0,1.5254651E0,-5.5502737E-1,1.6631689E-3,3.0302888E-1,2.416914E-3,-2.1836942E-1,-2.4873258E-1,1.4185831E-4,5.7337534E-1,-1.1564672E-3,-4.7192778E-4,-1.6420703E-4,-6.499844E-4,5.5317994E-4,9.389E-4],"split_indices":[0,0,0,2,0,0,0,0,0,1,2,0,0,0,0,0,0,0,0],"split_type":[0,0,0,0,0,0,0,0,0,0,0,0,0,0,0,0,0,0,0],"sum_hessian":[8.2E1,8.1E1,1E0,5.3E1,2.8E1,5.2E1,1E0,2.6E1,2E0,1.5E1,3.7E1,4E0,2.2E1,1.2E1,3E0,1.2E1,2.5E1,1.6E1,6E0],"tree_param":{"num_deleted":"0","num_feature":"6","num_nodes":"19","size_leaf_vector":"1"}},{"base_weights":[3.5496873E-3,-1.974416E-3,1.1413154E-2,-1.2012644E-2,1.4927592E-2,-1.3520021E-2,1.6215899E-3,1.1123252E-2,2.3363507E-3,-2.1831576E-2,-1.0688554E-2,2.5044829E-3,1.3262737E-2,-1.1813738E-3,-4.2840207E-4,-2.0839552E-4,-6.836878E-4,-1.2989156E-5,1.5042456E-4,5.271482E-4,8.986612E-4],"categories":[],"categories_nodes":[],"categories_segments":[],"categories_sizes":[],"default_left":[0,0,0,0,0,0,0,0,0,0,0,0,0,0,0,0,0,0,0,0,0],"id":26,"left_children":[1,3,-1,5,7,9,-1,11,-1,13,15,17,19,-1,-1,-1,-1,-1,-1,-1,-1],"loss_changes":[1.034819E-1,1.4091948E-2,0E0,3.922194E-3,3.230493E-3,9.6688047E-4,0E0,5.015356E-4,0E0,8.3399005E-5,7.2162645E-4,1.0534044E-5,1.05172396E-4,0E0,0E0,0E0,0E0,0E0,0E0,0E0,0E0],"parents":[2147483647,0,0,1,1,3,3,4,4,5,5,7,7,9,9,10,10,11,11,12,12],"right_children":[2,4,-1,6,8,10,-1,12,-1,14,16,18,20,-1,-1,-1,-1,-1,-1,-1,-1],"split_conditions":[7.625892E0,-1.4334384E-2,1.1413154E-2,1.2874223E0,1.5254651E0,-6.020441E-1,1.6215899E-3,3.0302888E-1,2.3363507E-3,-2.1836942E-1,-2.4873258E-1,-2.9461277E-1,5.7337534E-1,-1.1813738E-3,-4.2840207E-4,-2.0839552E-4,-6.836878E-4,-1.2989156E-5,1.5042456E-4,5.271482E-4,8.986612E-4],"split_indices":[0,0,0,2,0,0,0,0,0,1,2,1,0,0,0,0,0,0,0,0,0],"split_type":[0,0,0,0,0,0,0,0,0,0,0,0,0,0,0,0,0,0,0,0,0],"sum_hessian":[8.2E1,8.1E1,1E0,5.1E1,3E1,5E1,1E0,2.8E1,2E0,1.1E1,3.9E1,6E0,2.2E1,9E0,2E0,1.3E1,2.6E1,1E0,5E0,1.6E1,6E0],"tree_param":{"num_deleted":"0","num_feature":"6","num_nodes":"21","size_leaf_vector":"1"}},{"base_weights":[3.5460882E-3,-1.8388741E-3,1.1127825E-2,-1.1428941E-2,1.4307008E-2,-1.2893077E-2,1.5810501E-3,9.519738E-3,3.7296865E-2,-1.4732503E-2,-2.6721442E-3,5.4695653E-3,6.730363E-4,8.495999E-4,2.2584721E-3,-8.014378E-4,-8.376122E-5,-3.1870566E-4,1.7744229E-4,1.199445E-4,3.6250692E-4],"categories":[],"categories_nodes":[],"categories_segments":[],"categories_sizes":[],"default_left":[0,0,0,0,0,0,0,0,0,0,0,0,0,0,0,0,0,0,0,0,0],"id":27,"left_children":[1,3,-1,5,7,9,-1,11,13,15,17,19,-1,-1,-1,-1,-1,-1,-1,-1,-1],"loss_changes":[9.829637E-2,1.28604015E-2,0E0,3.685302E-3,3.0567613E-3,9.19465E-4,0E0,3.573415E-4,3.173994E-5,7.009478E-4,2.2988996E-4,6.4621156E-5,0E0,0E0,0E0,0E0,0E0,0E0,0E0,0E0,0E0],"parents":[2147483647,0,0,1,1,3,3,4,4,5,5,7,7,8,8,9,9,10,10,11,11],"right_children":[2,4,-1,6,8,10,-1,12,14,16,18,20,-1,-1,-1,-1,-1,-1,-1,-1,-1],"split_conditions":[7.625892E0,-1.4334384E-2,1.1127825E-2,1.2874223E0,7.1833444E-1,-4.4098936E-2,1.5810501E-3,4.91096E-1,1.5254651E0,-9.661375E-2,-1.3499567E-1,3.0302888E-1,6.730363E-4,8.495999E-4,2.2584721E-3,-8.014378E-4,-8.376122E-5,-3.1870566E-4,1.7744229E-4,1.199445E-4,3.6250692E-4],"split_indices":[0,0,0,2,1,1,0,0,0,0,4,0,0,0,0,0,0,0,0,0,0],"split_type":[0,0,0,0,0,0,0,0,0,0,0,0,0,0,0,0,0,0,0,0,0],"sum_hessian":[8.2E1,8.1E1,1E0,5.1E1,3E1,5E1,1E0,2.6E1,4E0,4.2E1,8E0,1.4E1,1.2E1,2E0,2E0,3.8E1,4E0,5E0,3E0,6E0,8E0],"tree_param":{"num_deleted":"0","num_feature":"6","num_nodes":"21","size_leaf_vector":"1"}},{"base_weights":[3.5609035E-3,-1.688173E-3,1.08496295E-2,-9.922731E-3,1.5453435E-2,-1.1224252E-2,1.5415241E-3,1.1450053E-2,2.18319E-3,-1.3411112E-2,-4.2274594E-5,8.738786E-3,8.059574E-4,-8.002676E-4,-2.3634918E-4,-7.320798E-5,8.3622115E-5,1.2850588E-4,4.6746185E-4],"categories":[],"categories_nodes":[],"categories_segments":[],"categories_sizes":[],"default_left":[0,0,0,0,0,0,0,0,0,0,0,0,0,0,0,0,0,0,0],"id":28,"left_children":[1,3,-1,5,7,9,-1,11,-1,13,15,17,-1,-1,-1,-1,-1,-1,-1],"loss_changes":[9.3352824E-2,1.1727932E-2,0E0,3.3163563E-3,2.5493414E-3,1.3443707E-3,0E0,1.756174E-4,0E0,9.6066296E-4,2.6830023E-5,4.3753535E-5,0E0,0E0,0E0,0E0,0E0,0E0,0E0],"parents":[2147483647,0,0,1,1,3,3,4,4,5,5,7,7,9,9,10,10,11,11],"right_children":[2,4,-1,6,8,10,-1,12,-1,14,16,18,-1,-1,-1,-1,-1,-1,-1],"split_conditions":[7.625892E0,1.5022434E-1,1.08496295E-2,7.916732E0,1.5254651E0,-9.661375E-2,1.5415241E-3,5.3811276E-1,2.18319E-3,-1.3123418E-1,-1.4334384E-2,3.0302888E-1,8.059574E-4,-8.002676E-4,-2.3634918E-4,-7.320798E-5,8.3622115E-5,1.2850588E-4,4.6746185E-4],"split_indices":[0,0,0,2,0,0,0,0,0,1,0,0,0,0,0,0,0,0,0],"split_type":[0,0,0,0,0,0,0,0,0,0,0,0,0,0,0,0,0,0,0],"sum_hessian":[8.2E1,8.1E1,1E0,5.5E1,2.6E1,5.4E1,1E0,2.4E1,2E0,4.5E1,9E0,1.7E1,7E0,3.4E1,1.1E1,5E0,4E0,2E0,1.5E1],"tree_param":{"num_deleted":"0","num_feature":"6","num_nodes":"19","size_leaf_vector":"1"}},{"base_weights":[3.562978E-3,-1.5537603E-3,1.0578388E-2,-9.417393E-3,1.4813543E-2,-1.0681699E-2,1.502986E-3,1.09336255E-2,2.1104172E-3,-1.2763092E-2,-3.912002E-5,8.524768E-3,7.955003E-4,-7.6139753E-4,-2.255166E-4,-7.0157585E-5,8.02771E-5,1.242223E-4,4.5446257E-4],"categories":[],"categories_nodes":[],"categories_segments":[],"categories_sizes":[],"default_left":[0,0,0,0,0,0,0,0,0,0,0,0,0,0,0,0,0,0,0],"id":29,"left_children":[1,3,-1,5,7,9,-1,11,-1,13,15,17,-1,-1,-1,-1,-1,-1,-1],"loss_changes":[8.8666126E-2,1.0693435E-2,0E0,3.1161136E-3,2.4083294E-3,1.2178267E-3,0E0,1.640555E-4,0E0,8.6704455E-4,2.4686531E-5,4.220172E-5,0E0,0E0,0E0,0E0,0E0,0E0,0E0],"parents":[2147483647,0,0,1,1,3,3,4,4,5,5,7,7,9,9,10,10,11,11],"right_children":[2,4,-1,6,8,10,-1,12,-1,14,16,18,-1,-1,-1,-1,-1,-1,-1],"split_conditions":[7.625892E0,1.5022434E-1,1.0578388E-2,7.916732E0,1.5254651E0,-9.661375E-2,1.502986E-3,5.7337534E-1,2.1104172E-3,-1.3123418E-1,-1.4334384E-2,3.0302888E-1,7.955003E-4,-7.6139753E-4,-2.255166E-4,-7.0157585E-5,8.02771E-5,1.242223E-4,4.5446257E-4],"split_indices":[0,0,0,2,0,0,0,0,0,1,0,0,0,0,0,0,0,0,0],"split_type":[0,0,0,0,0,0,0,0,0,0,0,0,0,0,0,0,0,0,0],"sum_hessian":[8.2E1,8.1E1,1E0,5.5E1,2.6E1,5.4E1,1E0,2.4E1,2E0,4.5E1,9E0,1.8E1,6E0,3.4E1,1.1E1,5E0,4E0,2E0,1.6E1],"tree_param":{"num_deleted":"0","num_feature":"6","num_nodes":"19","size_leaf_vector":"1"}},{"base_weights":[3.5606031E-3,-1.4271594E-3,1.0313928E-2,-8.937128E-3,1.4201931E-2,-1.0165375E-2,1.4654112E-3,1.0441917E-2,2.0400698E-3,-1.2146393E-2,-3.6154688E-5,8.128993E-3,7.6140754E-4,-7.244154E-4,-2.1518052E-4,-6.7234476E-5,7.70659E-5,1.2008176E-4,4.330764E-4],"categories":[],"categories_nodes":[],"categories_segments":[],"categories_sizes":[],"default_left":[0,0,0,0,0,0,0,0,0,0,0,0,0,0,0,0,0,0,0],"id":30,"left_children":[1,3,-1,5,7,9,-1,11,-1,13,15,17,-1,-1,-1,-1,-1,-1,-1],"loss_changes":[8.4216446E-2,9.751592E-3,0E0,2.928513E-3,2.2743423E-3,1.1032E-3,0E0,1.5296531E-4,0E0,7.825354E-4,2.2714374E-5,3.7148362E-5,0E0,0E0,0E0,0E0,0E0,0E0,0E0],"parents":[2147483647,0,0,1,1,3,3,4,4,5,5,7,7,9,9,10,10,11,11],"right_children":[2,4,-1,6,8,10,-1,12,-1,14,16,18,-1,-1,-1,-1,-1,-1,-1],"split_conditions":[7.625892E0,1.5022434E-1,1.0313928E-2,7.916732E0,1.5254651E0,-9.661375E-2,1.4654112E-3,5.7337534E-1,2.0400698E-3,-1.3123418E-1,-1.4334384E-2,3.0302888E-1,7.6140754E-4,-7.244154E-4,-2.1518052E-4,-6.7234476E-5,7.70659E-5,1.2008176E-4,4.330764E-4],"split_indices":[0,0,0,2,0,0,0,0,0,1,0,0,0,0,0,0,0,0,0],"split_type":[0,0,0,0,0,0,0,0,0,0,0,0,0,0,0,0,0,0,0],"sum_hessian":[8.2E1,8.1E1,1E0,5.5E1,2.6E1,5.4E1,1E0,2.4E1,2E0,4.5E1,9E0,1.8E1,6E0,3.4E1,1.1E1,5E0,4E0,2E0,1.6E1],"tree_param":{"num_deleted":"0","num_feature":"6","num_nodes":"19","size_leaf_vector":"1"}},{"base_weights":[3.5537074E-3,-1.3083597E-3,1.005608E-2,-8.480709E-3,1.3616081E-2,-9.674014E-3,1.4287758E-3,8.85875E-3,1.6388297E-3,-1.7018575E-2,-6.7510265E-3,5.8987546E-3,6.058434E-4,-9.4184343E-4,-3.6545267E-4,-1.1642567E-3,-2.8777728E-4,1.160788E-4,3.150743E-4],"categories":[],"categories_nodes":[],"categories_segments":[],"categories_sizes":[],"default_left":[0,0,0,0,0,0,0,0,0,0,0,0,0,0,0,0,0,0,0],"id":31,"left_children":[1,3,-1,5,7,9,-1,11,-1,13,15,17,-1,-1,-1,-1,-1,-1,-1],"loss_changes":[7.9991974E-2,8.893025E-3,0E0,2.7527236E-3,2.1707695E-3,1.0658503E-3,0E0,1.503377E-4,0E0,1.2714183E-4,5.408161E-4,5.539623E-6,0E0,0E0,0E0,0E0,0E0,0E0,0E0],"parents":[2147483647,0,0,1,1,3,3,4,4,5,5,7,7,9,9,10,10,11,11],"right_children":[2,4,-1,6,8,10,-1,12,-1,14,16,18,-1,-1,-1,-1,-1,-1,-1],"split_conditions":[7.625892E0,1.5022434E-1,1.005608E-2,7.916732E0,7.1833444E-1,-5.667815E-1,1.4287758E-3,5.146044E-1,1.6388297E-3,-2.1836942E-1,-1.0136627E0,3.0302888E-1,6.058434E-4,-9.4184343E-4,-3.6545267E-4,-1.1642567E-3,-2.8777728E-4,1.160788E-4,3.150743E-4],"split_indices":[0,0,0,2,1,0,0,0,0,1,5,0,0,0,0,0,0,0,0],"split_type":[0,0,0,0,0,0,0,0,0,0,0,0,0,0,0,0,0,0,0],"sum_hessian":[8.2E1,8.1E1,1E0,5.5E1,2.6E1,5.4E1,1E0,2.2E1,4E0,1.4E1,4E1,1.3E1,9E0,1.1E1,3E0,1E0,3.9E1,2E0,1.1E1],"tree_param":{"num_deleted":"0","num_feature":"6","num_nodes":"19","size_leaf_vector":"1"}},{"base_weights":[3.5133893E-3,-1.2265341E-3,9.804678E-3,-8.866416E-3,1.1628318E-2,-1.0132861E-2,1.3930564E-3,8.463155E-3,1.9174397E-3,-9.842884E-4,-8.165677E-3,3.7020356E-3,1.0774163E-2,-9.9570214E-5,-5.081711E-4,-1.44930555E-5,2.0651058E-4,3.2344557E-4,6.1317964E-4],"categories":[],"categories_nodes":[],"categories_segments":[],"categories_sizes":[],"default_left":[0,0,0,0,0,0,0,0,0,0,0,0,0,0,0,0,0,0,0],"id":32,"left_children":[1,3,-1,5,7,9,-1,11,-1,-1,13,15,17,-1,-1,-1,-1,-1,-1],"loss_changes":[7.6004185E-2,8.156286E-3,0E0,2.7010092E-3,2.2972631E-3,7.976615E-4,0E0,2.7920003E-4,0E0,0E0,5.2248384E-4,1.999877E-5,4.2503E-5,0E0,0E0,0E0,0E0,0E0,0E0],"parents":[2147483647,0,0,1,1,3,3,4,4,5,5,7,7,10,10,11,11,12,12],"right_children":[2,4,-1,6,8,10,-1,12,-1,-1,14,16,18,-1,-1,-1,-1,-1,-1],"split_conditions":[7.625892E0,-1.4334384E-2,9.804678E-3,1.2874223E0,1.5254651E0,-6.608151E-1,1.3930564E-3,3.7355405E-1,1.9174397E-3,-9.842884E-4,-6.9759566E-1,-2.9461277E-1,-5.499084E-2,-9.9570214E-5,-5.081711E-4,-1.44930555E-5,2.0651058E-4,3.2344557E-4,6.1317964E-4],"split_indices":[0,0,0,2,0,0,0,0,0,0,3,1,1,0,0,0,0,0,0],"split_type":[0,0,0,0,0,0,0,0,0,0,0,0,0,0,0,0,0,0,0],"sum_hessian":[8.2E1,8.1E1,1E0,5.1E1,3E1,5E1,1E0,2.8E1,2E0,7E0,4.3E1,1E1,1.8E1,1.1E1,3.2E1,1E0,9E0,6E0,1.2E1],"tree_param":{"num_deleted":"0","num_feature":"6","num_nodes":"19","size_leaf_vector":"1"}},{"base_weights":[3.4901518E-3,-1.1304859E-3,9.5595615E-3,-8.4269205E-3,1.1145161E-2,-9.657432E-3,1.35823E-3,7.1567995E-3,3.0453283E-2,-9.4122574E-4,-7.771203E-3,4.5970194E-3,5.524362E-4,6.8424846E-4,1.853525E-3,-4.2723483E-4,2.824052E-4,1.01885256E-4,2.8534338E-4],"categories":[],"categories_nodes":[],"categories_segments":[],"categories_sizes":[],"default_left":[0,0,0,0,0,0,0,0,0,0,0,0,0,0,0,0,0,0,0],"id":33,"left_children":[1,3,-1,5,7,9,-1,11,13,-1,15,17,-1,-1,-1,-1,-1,-1,-1],"loss_changes":[7.220192E-2,7.4385325E-3,0E0,2.5397216E-3,2.169293E-3,7.355632E-4,0E0,2.1819549E-4,4.7489535E-5,0E0,5.049701E-4,3.9499224E-5,0E0,0E0,0E0,0E0,0E0,0E0,0E0],"parents":[2147483647,0,0,1,1,3,3,4,4,5,5,7,7,8,8,10,10,11,11],"right_children":[2,4,-1,6,8,10,-1,12,14,-1,16,18,-1,-1,-1,-1,-1,-1,-1],"split_conditions":[7.625892E0,-1.4334384E-2,9.5595615E-3,1.2874223E0,7.1833444E-1,-6.608151E-1,1.35823E-3,5.146044E-1,1.5254651E0,-9.4122574E-4,9.749584E-2,3.0302888E-1,5.524362E-4,6.8424846E-4,1.853525E-3,-4.2723483E-4,2.824052E-4,1.01885256E-4,2.8534338E-4],"split_indices":[0,0,0,2,1,0,0,0,0,0,1,0,0,0,0,0,0,0,0],"split_type":[0,0,0,0,0,0,0,0,0,0,0,0,0,0,0,0,0,0,0],"sum_hessian":[8.2E1,8.1E1,1E0,5.1E1,3E1,5E1,1E0,2.6E1,4E0,7E0,4.3E1,1.7E1,9E0,2E0,2E0,4.1E1,2E0,6E0,1.1E1],"tree_param":{"num_deleted":"0","num_feature":"6","num_nodes":"19","size_leaf_vector":"1"}},{"base_weights":[3.4759946E-3,-1.0282357E-3,9.320572E-3,-8.000343E-3,1.0700081E-2,-9.195859E-3,1.3242745E-3,6.8337643E-3,2.9438173E-2,-9.000472E-4,-7.385938E-3,4.388682E-3,5.2757683E-4,6.614402E-4,1.791741E-3,-7.8382E-5,-4.6389332E-4,9.751879E-5,2.722652E-4],"categories":[],"categories_nodes":[],"categories_segments":[],"categories_sizes":[],"default_left":[0,0,0,0,0,0,0,0,0,0,0,0,0,0,0,0,0,0,0],"id":34,"left_children":[1,3,-1,5,7,9,-1,11,13,-1,15,17,-1,-1,-1,-1,-1,-1,-1],"loss_changes":[6.85823E-2,6.7908326E-3,0E0,2.387432E-3,2.0446961E-3,6.798082E-4,0E0,1.9912957E-4,4.4376124E-5,0E0,4.6979892E-4,3.57542E-5,0E0,0E0,0E0,0E0,0E0,0E0,0E0],"parents":[2147483647,0,0,1,1,3,3,4,4,5,5,7,7,8,8,10,10,11,11],"right_children":[2,4,-1,6,8,10,-1,12,14,-1,16,18,-1,-1,-1,-1,-1,-1,-1],"split_conditions":[7.625892E0,-1.4334384E-2,9.320572E-3,1.2874223E0,7.1833444E-1,-6.608151E-1,1.3242745E-3,5.146044E-1,1.5254651E0,-9.000472E-4,-6.9759566E-1,3.0302888E-1,5.2757683E-4,6.614402E-4,1.791741E-3,-7.8382E-5,-4.6389332E-4,9.751879E-5,2.722652E-4],"split_indices":[0,0,0,2,1,0,0,0,0,0,3,0,0,0,0,0,0,0,0],"split_type":[0,0,0,0,0,0,0,0,0,0,0,0,0,0,0,0,0,0,0],"sum_hessian":[8.2E1,8.1E1,1E0,5.1E1,3E1,5E1,1E0,2.6E1,4E0,7E0,4.3E1,1.7E1,9E0,2E0,2E0,1.1E1,3.2E1,6E0,1.1E1],"tree_param":{"num_deleted":"0","num_feature":"6","num_nodes":"19","size_leaf_vector":"1"}},{"base_weights":[3.453438E-3,-9.37402E-4,9.087558E-3,-7.2647505E-3,1.0876882E-2,-8.376287E-3,1.2911673E-3,7.833652E-3,1.7320162E-3,-1.1750511E-2,-4.127136E-3,5.932038E-3,6.2097004E-4,-7.073378E-4,-2.8914862E-4,1.0001222E-4,-4.5421906E-4,1.0029093E-4,3.3689325E-4],"categories":[],"categories_nodes":[],"categories_segments":[],"categories_sizes":[],"default_left":[0,0,0,0,0,0,0,0,0,0,0,0,0,0,0,0,0,0,0],"id":35,"left_children":[1,3,-1,5,7,9,-1,11,-1,13,15,17,-1,-1,-1,-1,-1,-1,-1],"loss_changes":[6.514915E-2,6.2087714E-3,0E0,2.2023497E-3,1.8258502E-3,7.1139634E-4,0E0,1.6177632E-4,0E0,3.328803E-4,7.775441E-4,5.2926014E-5,0E0,0E0,0E0,0E0,0E0,0E0,0E0],"parents":[2147483647,0,0,1,1,3,3,4,4,5,5,7,7,9,9,10,10,11,11],"right_children":[2,4,-1,6,8,10,-1,12,-1,14,16,18,-1,-1,-1,-1,-1,-1,-1],"split_conditions":[7.625892E0,2.09282E-2,9.087558E-3,7.916732E0,1.5254651E0,-4.257312E-1,1.2911673E-3,5.7337534E-1,1.7320162E-3,-2.8372085E-1,-2.1836942E-1,3.0302888E-1,6.2097004E-4,-7.073378E-4,-2.8914862E-4,1.0001222E-4,-4.5421906E-4,1.0029093E-4,3.3689325E-4],"split_indices":[0,0,0,2,0,0,0,0,0,1,1,0,0,0,0,0,0,0,0],"split_type":[0,0,0,0,0,0,0,0,0,0,0,0,0,0,0,0,0,0,0],"sum_hessian":[8.2E1,8.1E1,1E0,5.3E1,2.8E1,5.2E1,1E0,2.6E1,2E0,2.8E1,2.4E1,2E1,6E0,1.9E1,9E0,1.1E1,1.3E1,4E0,1.6E1],"tree_param":{"num_deleted":"0","num_feature":"6","num_nodes":"19","size_leaf_vector":"1"}},{"base_weights":[3.423152E-3,-8.572335E-4,8.860369E-3,-7.233344E-3,9.865831E-3,-8.362537E-3,1.2588882E-3,6.2214136E-3,2.7572516E-2,-8.323379E-4,-6.666258E-3,3.4770658E-3,4.4546995E-4,6.2342756E-4,1.674282E-3,-3.702149E-4,2.94419E-4,1.7135219E-5,1.9664566E-4],"categories":[],"categories_nodes":[],"categories_segments":[],"categories_sizes":[],"default_left":[0,0,0,0,0,0,0,0,0,0,0,0,0,0,0,0,0,0,0],"id":36,"left_children":[1,3,-1,5,7,9,-1,11,13,-1,15,17,-1,-1,-1,-1,-1,-1,-1],"loss_changes":[6.1892584E-2,5.677821E-3,0E0,2.1136675E-3,1.8289066E-3,6.05698E-4,0E0,1.6819406E-4,2.9040733E-5,0E0,4.5129517E-4,2.0084044E-5,0E0,0E0,0E0,0E0,0E0,0E0,0E0],"parents":[2147483647,0,0,1,1,3,3,4,4,5,5,7,7,8,8,10,10,11,11],"right_children":[2,4,-1,6,8,10,-1,12,14,-1,16,18,-1,-1,-1,-1,-1,-1,-1],"split_conditions":[7.625892E0,-1.4334384E-2,8.860369E-3,1.2874223E0,7.1833444E-1,-6.608151E-1,1.2588882E-3,4.91096E-1,1.5254651E0,-8.323379E-4,9.749584E-2,-2.1836942E-1,4.4546995E-4,6.2342756E-4,1.674282E-3,-3.702149E-4,2.94419E-4,1.7135219E-5,1.9664566E-4],"split_indices":[0,0,0,2,1,0,0,0,0,0,1,1,0,0,0,0,0,0,0],"split_type":[0,0,0,0,0,0,0,0,0,0,0,0,0,0,0,0,0,0,0],"sum_hessian":[8.2E1,8.1E1,1E0,5.1E1,3E1,5E1,1E0,2.6E1,4E0,7E0,4.3E1,1.4E1,1.2E1,2E0,2E0,4.1E1,2E0,2E0,1.2E1],"tree_param":{"num_deleted":"0","num_feature":"6","num_nodes":"19","size_leaf_vector":"1"}},{"base_weights":[3.3985956E-3,-7.7403634E-4,8.638861E-3,-6.1026616E-3,1.0937721E-2,-7.088363E-3,1.2274157E-3,7.8030154E-3,1.6184727E-3,-8.861911E-3,9.726848E-4,5.939623E-3,5.73994E-4,-5.454078E-4,-1.0775998E-4,-5.3126987E-5,7.715084E-5,4.2850172E-4,2.4211025E-4],"categories":[],"categories_nodes":[],"categories_segments":[],"categories_sizes":[],"default_left":[0,0,0,0,0,0,0,0,0,0,0,0,0,0,0,0,0,0,0],"id":37,"left_children":[1,3,-1,5,7,9,-1,11,-1,13,15,17,-1,-1,-1,-1,-1,-1,-1],"loss_changes":[5.8794364E-2,5.1841694E-3,0E0,1.8961322E-3,1.4941569E-3,8.0923224E-4,0E0,9.624835E-5,0E0,6.077753E-4,1.4407809E-5,1.046207E-5,0E0,0E0,0E0,0E0,0E0,0E0,0E0],"parents":[2147483647,0,0,1,1,3,3,4,4,5,5,7,7,9,9,10,10,11,11],"right_children":[2,4,-1,6,8,10,-1,12,-1,14,16,18,-1,-1,-1,-1,-1,-1,-1],"split_conditions":[7.625892E0,1.6197854E-1,8.638861E-3,7.916732E0,1.5254651E0,-9.661375E-2,1.2274157E-3,5.7337534E-1,1.6184727E-3,-1.3123418E-1,-2.9461277E-1,-6.435205E-1,5.73994E-4,-5.454078E-4,-1.0775998E-4,-5.3126987E-5,7.715084E-5,4.2850172E-4,2.4211025E-4],"split_indices":[0,0,0,2,0,0,0,0,0,1,1,2,0,0,0,0,0,0,0],"split_type":[0,0,0,0,0,0,0,0,0,0,0,0,0,0,0,0,0,0,0],"sum_hessian":[8.2E1,8.1E1,1E0,5.6E1,2.5E1,5.5E1,1E0,2.3E1,2E0,4.5E1,1E1,1.7E1,6E0,3.4E1,1.1E1,2E0,8E0,3E0,1.4E1],"tree_param":{"num_deleted":"0","num_feature":"6","num_nodes":"19","size_leaf_vector":"1"}},{"base_weights":[3.3744497E-3,-6.9312484E-4,8.422889E-3,-5.7870345E-3,1.0500952E-2,-6.745182E-3,1.1967305E-3,7.464722E-3,1.5645236E-3,-1.0300132E-2,-2.82237E-3,5.824175E-3,5.707833E-4,-6.233157E-4,-2.4688782E-4,-6.738793E-5,-1.0659219E-3,7.081814E-5,2.9951835E-4],"categories":[],"categories_nodes":[],"categories_segments":[],"categories_sizes":[],"default_left":[0,0,0,0,0,0,0,0,0,0,0,0,0,0,0,0,0,0,0],"id":38,"left_children":[1,3,-1,5,7,9,-1,11,-1,13,15,17,-1,-1,-1,-1,-1,-1,-1],"loss_changes":[5.5850327E-2,4.736542E-3,0E0,1.7846731E-3,1.4075909E-3,7.518721E-4,0E0,8.9074136E-5,0E0,2.7530477E-4,7.349542E-4,5.4338016E-6,0E0,0E0,0E0,0E0,0E0,0E0,0E0],"parents":[2147483647,0,0,1,1,3,3,4,4,5,5,7,7,9,9,10,10,11,11],"right_children":[2,4,-1,6,8,10,-1,12,-1,14,16,18,-1,-1,-1,-1,-1,-1,-1],"split_conditions":[7.625892E0,1.6197854E-1,8.422889E-3,7.916732E0,1.5254651E0,-4.257312E-1,1.1967305E-3,5.8512956E-1,1.5645236E-3,-2.8372085E-1,1.6788397E0,3.0302888E-1,5.707833E-4,-6.233157E-4,-2.4688782E-4,-6.738793E-5,-1.0659219E-3,7.081814E-5,2.9951835E-4],"split_indices":[0,0,0,2,0,0,0,0,0,1,4,0,0,0,0,0,0,0,0],"split_type":[0,0,0,0,0,0,0,0,0,0,0,0,0,0,0,0,0,0,0],"sum_hessian":[8.2E1,8.1E1,1E0,5.6E1,2.5E1,5.5E1,1E0,2.3E1,2E0,2.8E1,2.7E1,1.8E1,5E0,1.9E1,9E0,2.6E1,1E0,1E0,1.7E1],"tree_param":{"num_deleted":"0","num_feature":"6","num_nodes":"19","size_leaf_vector":"1"}},{"base_weights":[3.3276773E-3,-6.3774904E-4,8.212316E-3,-6.2188646E-3,8.744695E-3,-7.25595E-3,1.1668124E-3,5.409525E-3,2.5005674E-2,-7.471444E-4,-5.693417E-3,3.430201E-3,4.215678E-4,5.714332E-4,1.512373E-3,-1.0392738E-3,-2.429528E-4,1.896759E-4,1.745547E-5],"categories":[],"categories_nodes":[],"categories_segments":[],"categories_sizes":[],"default_left":[0,0,0,0,0,0,0,0,0,0,0,0,0,0,0,0,0,0,0],"id":39,"left_children":[1,3,-1,5,7,9,-1,11,13,-1,15,17,-1,-1,-1,-1,-1,-1,-1],"loss_changes":[5.3067964E-2,4.3482715E-3,0E0,1.7631878E-3,1.5459585E-3,5.274897E-4,0E0,1.3257068E-4,1.015095E-5,0E0,4.5306038E-4,1.8825085E-5,0E0,0E0,0E0,0E0,0E0,0E0,0E0],"parents":[2147483647,0,0,1,1,3,3,4,4,5,5,7,7,8,8,10,10,11,11],"right_children":[2,4,-1,6,8,10,-1,12,14,-1,16,18,-1,-1,-1,-1,-1,-1,-1],"split_conditions":[7.625892E0,-1.4334384E-2,8.212316E-3,1.2874223E0,7.1833444E-1,-6.608151E-1,1.1668124E-3,5.146044E-1,1.5254651E0,-7.471444E-4,-1.0136627E0,3.538393E-1,4.215678E-4,5.714332E-4,1.512373E-3,-1.0392738E-3,-2.429528E-4,1.896759E-4,1.745547E-5],"split_indices":[0,0,0,2,1,0,0,0,0,0,5,5,0,0,0,0,0,0,0],"split_type":[0,0,0,0,0,0,0,0,0,0,0,0,0,0,0,0,0,0,0],"sum_hessian":[8.2E1,8.1E1,1E0,5.1E1,3E1,5E1,1E0,2.6E1,4E0,7E0,4.3E1,1.7E1,9E0,2E0,2E0,1E0,4.2E1,1.5E1,2E0],"tree_param":{"num_deleted":"0","num_feature":"6","num_nodes":"19","size_leaf_vector":"1"}},{"base_weights":[3.2825267E-3,-5.832999E-4,8.007008E-3,-5.9245066E-3,8.394959E-3,-6.9329417E-3,1.1376422E-3,5.1623327E-3,2.4172151E-2,-1.2685698E-2,-5.033791E-3,3.3995141E-3,4.1551236E-4,5.523855E-4,1.4619604E-3,-7.1757537E-4,-2.8831014E-4,-1.0132919E-3,-2.0617945E-4,1.8699515E-4,1.6873579E-5],"categories":[],"categories_nodes":[],"categories_segments":[],"categories_sizes":[],"default_left":[0,0,0,0,0,0,0,0,0,0,0,0,0,0,0,0,0,0,0,0,0],"id":40,"left_children":[1,3,-1,5,7,9,-1,11,13,15,17,19,-1,-1,-1,-1,-1,-1,-1,-1,-1],"loss_changes":[5.0423317E-2,3.9820243E-3,0E0,1.661545E-3,1.4562702E-3,4.9333577E-4,0E0,1.2157764E-4,9.485055E-6,5.556515E-5,4.7100172E-4,1.8541323E-5,0E0,0E0,0E0,0E0,0E0,0E0,0E0,0E0,0E0],"parents":[2147483647,0,0,1,1,3,3,4,4,5,5,7,7,8,8,9,9,10,10,11,11],"right_children":[2,4,-1,6,8,10,-1,12,14,16,18,20,-1,-1,-1,-1,-1,-1,-1,-1,-1],"split_conditions":[7.625892E0,-1.4334384E-2,8.007008E-3,1.2874223E0,7.1833444E-1,-6.020441E-1,1.1376422E-3,5.263586E-1,1.5254651E0,-2.8372085E-1,-1.0136627E0,3.538393E-1,4.1551236E-4,5.523855E-4,1.4619604E-3,-7.1757537E-4,-2.8831014E-4,-1.0132919E-3,-2.0617945E-4,1.8699515E-4,1.6873579E-5],"split_indices":[0,0,0,2,1,0,0,0,0,1,5,5,0,0,0,0,0,0,0,0,0],"split_type":[0,0,0,0,0,0,0,0,0,0,0,0,0,0,0,0,0,0,0,0,0],"sum_hessian":[8.2E1,8.1E1,1E0,5.1E1,3E1,5E1,1E0,2.6E1,4E0,1.1E1,3.9E1,1.8E1,8E0,2E0,2E0,8E0,3E0,1E0,3.8E1,1.6E1,2E0],"tree_param":{"num_deleted":"0","num_feature":"6","num_nodes":"21","size_leaf_vector":"1"}},{"base_weights":[3.2334966E-3,-5.352817E-4,7.8068334E-3,-5.9254095E-3,7.6477993E-3,-6.9518066E-3,1.1092011E-3,4.673977E-3,2.336641E-2,-8.372828E-3,2.9415803E-4,2.3901951E-3,6.950158E-3,5.339727E-4,1.4132281E-3,-6.220645E-4,-2.3239442E-4,-1.4567035E-4,2.5159828E-4,3.2057615E-5,1.45989E-4,2.4203792E-4,4.4779494E-4],"categories":[],"categories_nodes":[],"categories_segments":[],"categories_sizes":[],"default_left":[0,0,0,0,0,0,0,0,0,0,0,0,0,0,0,0,0,0,0,0,0,0,0],"id":41,"left_children":[1,3,-1,5,7,9,-1,11,13,15,17,19,21,-1,-1,-1,-1,-1,-1,-1,-1,-1,-1],"loss_changes":[4.7913004E-2,3.6621604E-3,0E0,1.5967907E-3,1.4333497E-3,5.069999E-4,0E0,1.341385E-4,8.863397E-6,5.6352024E-4,1.5143158E-4,1.2948243E-5,1.5879341E-5,0E0,0E0,0E0,0E0,0E0,0E0,0E0,0E0,0E0,0E0],"parents":[2147483647,0,0,1,1,3,3,4,4,5,5,7,7,8,8,9,9,10,10,11,11,12,12],"right_children":[2,4,-1,6,8,10,-1,12,14,16,18,20,22,-1,-1,-1,-1,-1,-1,-1,-1,-1,-1],"split_conditions":[7.625892E0,-3.7842773E-2,7.8068334E-3,1.2874223E0,7.1833444E-1,-4.4098936E-2,1.1092011E-3,4.793418E-1,1.5254651E0,-5.1183194E-1,-1.3499567E-1,-2.1836942E-1,5.7337534E-1,5.339727E-4,1.4132281E-3,-6.220645E-4,-2.3239442E-4,-1.4567035E-4,2.5159828E-4,3.2057615E-5,1.45989E-4,2.4203792E-4,4.4779494E-4],"split_indices":[0,0,0,2,1,1,0,0,0,3,4,1,0,0,0,0,0,0,0,0,0,0,0],"split_type":[0,0,0,0,0,0,0,0,0,0,0,0,0,0,0,0,0,0,0,0,0,0,0],"sum_hessian":[8.2E1,8.1E1,1E0,4.9E1,3.2E1,4.8E1,1E0,2.8E1,4E0,4E1,8E0,1.5E1,1.3E1,2E0,2E0,1.8E1,2.2E1,5E0,3E0,4E0,1.1E1,8E0,5E0],"tree_param":{"num_deleted":"0","num_feature":"6","num_nodes":"23","size_leaf_vector":"1"}},{"base_weights":[3.2041415E-3,-4.6978955E-4,7.611662E-3,-4.75689E-3,8.946923E-3,-5.6143138E-3,1.0814712E-3,5.4401057E-3,2.2587532E-2,-8.733824E-3,-2.1828818E-3,4.010936E-3,4.2913682E-4,5.161738E-4,1.3661206E-3,-3.6170013E-4,-9.6604705E-4,-4.0434632E-5,-9.821499E-4,2.113921E-4,7.947137E-5],"categories":[],"categories_nodes":[],"categories_segments":[],"categories_sizes":[],"default_left":[0,0,0,0,0,0,0,0,0,0,0,0,0,0,0,0,0,0,0,0,0],"id":42,"left_children":[1,3,-1,5,7,9,-1,11,13,15,17,19,-1,-1,-1,-1,-1,-1,-1,-1,-1],"loss_changes":[4.5515895E-2,3.3529315E-3,0E0,1.4110167E-3,1.1208346E-3,5.8038055E-4,0E0,6.438495E-5,8.281786E-6,3.20717E-4,6.5593293E-4,2.2092427E-6,0E0,0E0,0E0,0E0,0E0,0E0,0E0,0E0,0E0],"parents":[2147483647,0,0,1,1,3,3,4,4,5,5,7,7,8,8,9,9,10,10,11,11],"right_children":[2,4,-1,6,8,10,-1,12,14,16,18,20,-1,-1,-1,-1,-1,-1,-1,-1,-1],"split_conditions":[7.625892E0,1.6197854E-1,7.611662E-3,7.916732E0,7.1833444E-1,-4.257312E-1,1.0814712E-3,5.7337534E-1,1.5254651E0,-4.609938E-1,1.6788397E0,1.8463108E-1,4.2913682E-4,5.161738E-4,1.3661206E-3,-3.6170013E-4,-9.6604705E-4,-4.0434632E-5,-9.821499E-4,2.113921E-4,7.947137E-5],"split_indices":[0,0,0,2,1,0,0,0,0,0,4,1,0,0,0,0,0,0,0,0,0],"split_type":[0,0,0,0,0,0,0,0,0,0,0,0,0,0,0,0,0,0,0,0,0],"sum_hessian":[8.2E1,8.1E1,1E0,5.6E1,2.5E1,5.5E1,1E0,2.1E1,4E0,2.8E1,2.7E1,1.6E1,5E0,2E0,2E0,2.6E1,2E0,2.6E1,1E0,1.4E1,2E0],"tree_param":{"num_deleted":"0","num_feature":"6","num_nodes":"21","size_leaf_vector":"1"}},{"base_weights":[3.1517083E-3,-4.300373E-4,7.4213715E-3,-5.381821E-3,7.085697E-3,-6.352417E-3,1.0544345E-3,4.297501E-3,2.1840096E-2,-7.701977E-3,5.0140254E-4,1.7090772E-3,5.5698776E-3,4.994249E-4,1.3205832E-3,-5.781019E-4,-2.089181E-4,-9.921922E-5,3.067219E-4,-1.9680523E-5,9.793534E-5,2.064144E-4,4.0026367E-4],"categories":[],"categories_nodes":[],"categories_segments":[],"categories_sizes":[],"default_left":[0,0,0,0,0,0,0,0,0,0,0,0,0,0,0,0,0,0,0,0,0,0,0],"id":43,"left_children":[1,3,-1,5,7,9,-1,11,13,15,17,19,21,-1,-1,-1,-1,-1,-1,-1,-1,-1,-1],"loss_changes":[4.3252107E-2,3.0898696E-3,0E0,1.4185729E-3,1.2637015E-3,4.5709405E-4,0E0,8.59907E-5,7.088762E-6,5.093457E-4,1.3819583E-4,6.5447966E-6,3.365788E-5,0E0,0E0,0E0,0E0,0E0,0E0,0E0,0E0,0E0,0E0],"parents":[2147483647,0,0,1,1,3,3,4,4,5,5,7,7,8,8,9,9,10,10,11,11,12,12],"right_children":[2,4,-1,6,8,10,-1,12,14,16,18,20,22,-1,-1,-1,-1,-1,-1,-1,-1,-1,-1],"split_conditions":[7.625892E0,-3.7842773E-2,7.4213715E-3,1.2874223E0,7.614425E-1,-4.4098936E-2,1.0544345E-3,3.2653728E-1,1.5254651E0,-5.1183194E-1,9.749584E-2,-2.9461277E-1,5.1239026E-1,4.994249E-4,1.3205832E-3,-5.781019E-4,-2.089181E-4,-9.921922E-5,3.067219E-4,-1.9680523E-5,9.793534E-5,2.064144E-4,4.0026367E-4],"split_indices":[0,0,0,2,0,1,0,0,0,3,1,1,5,0,0,0,0,0,0,0,0,0,0],"split_type":[0,0,0,0,0,0,0,0,0,0,0,0,0,0,0,0,0,0,0,0,0,0,0],"sum_hessian":[8.2E1,8.1E1,1E0,4.9E1,3.2E1,4.8E1,1E0,2.8E1,4E0,4E1,8E0,1E1,1.8E1,2E0,2E0,1.8E1,2.2E1,6E0,2E0,1E0,9E0,1.3E1,5E0],"tree_param":{"num_deleted":"0","num_feature":"6","num_nodes":"23","size_leaf_vector":"1"}},{"base_weights":[3.1194407E-3,-3.7219375E-4,7.235837E-3,-5.476653E-3,6.3023E-3,-6.4896876E-3,1.0280736E-3,3.7890812E-3,2.112644E-2,-5.114381E-3,-1.6744325E-2,1.8795909E-3,6.1098835E-3,4.839731E-4,1.2765636E-3,-3.852255E-4,1.00149155E-4,3.58288E-4,-1.2256643E-3,-3.3699598E-5,1.1098295E-4,2.2147769E-4,4.1242837E-4],"categories":[],"categories_nodes":[],"categories_segments":[],"categories_sizes":[],"default_left":[0,0,0,0,0,0,0,0,0,0,0,0,0,0,0,0,0,0,0,0,0,0,0],"id":44,"left_children":[1,3,-1,5,7,9,-1,11,13,15,17,19,21,-1,-1,-1,-1,-1,-1,-1,-1,-1,-1],"loss_changes":[4.108956E-2,2.8282292E-3,0E0,1.3731812E-3,1.2611774E-3,5.631136E-4,0E0,1.3032553E-4,4.981179E-6,7.896974E-4,1.1044389E-3,1.799548E-5,1.3774203E-5,0E0,0E0,0E0,0E0,0E0,0E0,0E0,0E0,0E0,0E0],"parents":[2147483647,0,0,1,1,3,3,4,4,5,5,7,7,8,8,9,9,10,10,11,11,12,12],"right_children":[2,4,-1,6,8,10,-1,12,14,16,18,20,22,-1,-1,-1,-1,-1,-1,-1,-1,-1,-1],"split_conditions":[7.625892E0,-9.661375E-2,7.235837E-3,1.2874223E0,7.1833444E-1,-2.3766409E-1,1.0280736E-3,4.793418E-1,1.5254651E0,-3.9046863E-1,-2.1836942E-1,-2.9461277E-1,5.8512956E-1,4.839731E-4,1.2765636E-3,-3.852255E-4,1.00149155E-4,3.58288E-4,-1.2256643E-3,-3.3699598E-5,1.1098295E-4,2.2147769E-4,4.1242837E-4],"split_indices":[0,0,0,2,1,0,0,0,0,0,1,1,0,0,0,0,0,0,0,0,0,0,0],"split_type":[0,0,0,0,0,0,0,0,0,0,0,0,0,0,0,0,0,0,0,0,0,0,0],"sum_hessian":[8.2E1,8.1E1,1E0,4.6E1,3.5E1,4.5E1,1E0,3.1E1,4E0,4.1E1,4E0,1.8E1,1.3E1,2E0,2E0,3E1,1.1E1,1E0,3E0,2E0,1.6E1,9E0,4E0],"tree_param":{"num_deleted":"0","num_feature":"6","num_nodes":"23","size_leaf_vector":"1"}},{"base_weights":[3.0789282E-3,-3.249588E-4,7.0549413E-3,-5.2743778E-3,6.1458093E-3,-7.840033E-3,2.038876E-3,3.723063E-3,2.0422224E-2,-5.6370725E-3,-2.3503706E-2,-3.25763E-5,2.5872698E-3,2.5497791E-3,1.0023717E-3,4.6784058E-4,1.2340114E-3,-4.3087328E-4,1.4684912E-4,3.4933072E-4,-1.7998008E-3,4.9802195E-5,1.5297369E-4,-1.0892089E-4,2.4525178E-4],"categories":[],"categories_nodes":[],"categories_segments":[],"categories_sizes":[],"default_left":[0,0,0,0,0,0,0,0,0,0,0,0,0,0,0,0,0,0,0,0,0,0,0,0,0],"id":45,"left_children":[1,3,-1,5,7,9,11,13,15,17,19,-1,21,23,-1,-1,-1,-1,-1,-1,-1,-1,-1,-1,-1],"loss_changes":[3.9039593E-2,2.6585918E-3,0E0,8.978592E-4,1.1691395E-3,1.0752336E-3,2.0865868E-5,5.6178344E-4,4.6547502E-6,8.43039E-4,1.7750685E-3,0E0,5.217851E-6,3.559048E-4,0E0,0E0,0E0,0E0,0E0,0E0,0E0,0E0,0E0,0E0,0E0],"parents":[2147483647,0,0,1,1,3,3,4,4,5,5,6,6,7,7,8,8,9,9,10,10,12,12,13,13],"right_children":[2,4,-1,6,8,10,12,14,16,18,20,-1,22,24,-1,-1,-1,-1,-1,-1,-1,-1,-1,-1,-1],"split_conditions":[7.625892E0,-1.3123418E-1,7.0549413E-3,-9.661375E-2,7.1833444E-1,-2.7292666E-1,-2.9461277E-1,1.2874223E0,1.5254651E0,-4.257312E-1,-2.1836942E-1,-3.25763E-5,-1.4334384E-2,-2.3766409E-1,1.0023717E-3,4.6784058E-4,1.2340114E-3,-4.3087328E-4,1.4684912E-4,3.4933072E-4,-1.7998008E-3,4.9802195E-5,1.5297369E-4,-1.0892089E-4,2.4525178E-4],"split_indices":[0,1,0,0,1,0,1,2,0,0,1,0,0,0,0,0,0,0,0,0,0,0,0,0,0],"split_type":[0,0,0,0,0,0,0,0,0,0,0,0,0,0,0,0,0,0,0,0,0,0,0,0,0],"sum_hessian":[8.2E1,8.1E1,1E0,4.6E1,3.5E1,3.4E1,1.2E1,3.1E1,4E0,3.1E1,3E0,2E0,1E1,3E1,1E0,2E0,2E0,2.3E1,8E0,1E0,2E0,3E0,7E0,1E1,2E1],"tree_param":{"num_deleted":"0","num_feature":"6","num_nodes":"25","size_leaf_vector":"1"}},{"base_weights":[3.0253567E-3,-2.931479E-4,6.8785683E-3,-5.0439415E-3,5.91742E-3,-7.4975877E-3,1.9500238E-3,3.5655417E-3,9.89298E-4,-5.3640944E-3,-2.2691138E-2,-3.14905E-5,2.47634E-3,2.4195109E-3,9.773124E-4,-4.102272E-4,1.4032242E-4,3.4059753E-4,-1.7398074E-3,4.7934707E-5,1.4628102E-4,-1.0396998E-4,2.330434E-4],"categories":[],"categories_nodes":[],"categories_segments":[],"categories_sizes":[],"default_left":[0,0,0,0,0,0,0,0,0,0,0,0,0,0,0,0,0,0,0,0,0,0,0],"id":46,"left_children":[1,3,-1,5,7,9,11,13,-1,15,17,-1,19,21,-1,-1,-1,-1,-1,-1,-1,-1,-1],"loss_changes":[3.709913E-2,2.4492678E-3,0E0,8.21174E-4,1.1036687E-3,1.0128194E-3,1.9211133E-5,5.3876784E-4,0E0,7.6568214E-4,1.6655708E-3,0E0,4.695561E-6,3.2228546E-4,0E0,0E0,0E0,0E0,0E0,0E0,0E0,0E0,0E0],"parents":[2147483647,0,0,1,1,3,3,4,4,5,5,6,6,7,7,9,9,10,10,12,12,13,13],"right_children":[2,4,-1,6,8,10,12,14,-1,16,18,-1,20,22,-1,-1,-1,-1,-1,-1,-1,-1,-1],"split_conditions":[7.625892E0,-1.3123418E-1,6.8785683E-3,-9.661375E-2,7.614425E-1,-2.7292666E-1,-2.9461277E-1,1.2874223E0,9.89298E-4,-4.257312E-1,-2.1836942E-1,-3.14905E-5,-1.4334384E-2,-2.3766409E-1,9.773124E-4,-4.102272E-4,1.4032242E-4,3.4059753E-4,-1.7398074E-3,4.7934707E-5,1.4628102E-4,-1.0396998E-4,2.330434E-4],"split_indices":[0,1,0,0,0,0,1,2,0,0,1,0,0,0,0,0,0,0,0,0,0,0,0],"split_type":[0,0,0,0,0,0,0,0,0,0,0,0,0,0,0,0,0,0,0,0,0,0,0],"sum_hessian":[8.2E1,8.1E1,1E0,4.6E1,3.5E1,3.4E1,1.2E1,3.1E1,4E0,3.1E1,3E0,2E0,1E1,3E1,1E0,2.3E1,8E0,1E0,2E0,3E0,7E0,1E1,2E1],"tree_param":{"num_deleted":"0","num_feature":"6","num_nodes":"23","size_leaf_vector":"1"}},{"base_weights":[2.964064E-3,-2.7130308E-4,6.7066043E-3,-4.8237955E-3,5.679765E-3,-7.1703964E-3,1.865038E-3,3.405158E-3,1.9101296E-2,-5.1043234E-3,-2.1906383E-2,-3.0440713E-5,2.370176E-3,2.2854796E-3,9.528797E-4,1.0535008E-3,2.806604E-4,-3.9057038E-4,1.3408579E-4,3.3208262E-4,-1.681814E-3,4.613707E-5,1.3988107E-4,-9.924394E-5,2.2067507E-4],"categories":[],"categories_nodes":[],"categories_segments":[],"categories_sizes":[],"default_left":[0,0,0,0,0,0,0,0,0,0,0,0,0,0,0,0,0,0,0,0,0,0,0,0,0],"id":47,"left_children":[1,3,-1,5,7,9,11,13,15,17,19,-1,21,23,-1,-1,-1,-1,-1,-1,-1,-1,-1,-1,-1],"loss_changes":[3.5259657E-2,2.2489575E-3,0E0,7.5108616E-4,1.0339904E-3,9.537797E-4,1.7688279E-5,5.172665E-4,1.4500925E-5,6.954267E-4,1.5628623E-3,0E0,4.22421E-6,2.9047017E-4,0E0,0E0,0E0,0E0,0E0,0E0,0E0,0E0,0E0,0E0,0E0],"parents":[2147483647,0,0,1,1,3,3,4,4,5,5,6,6,7,7,8,8,9,9,10,10,12,12,13,13],"right_children":[2,4,-1,6,8,10,12,14,16,18,20,-1,22,24,-1,-1,-1,-1,-1,-1,-1,-1,-1,-1,-1],"split_conditions":[7.625892E0,-1.3123418E-1,6.7066043E-3,-9.661375E-2,7.1833444E-1,-2.7292666E-1,-2.9461277E-1,1.2874223E0,-3.816315E-1,-4.257312E-1,-2.1836942E-1,-3.0440713E-5,-1.4334384E-2,-2.3766409E-1,9.528797E-4,1.0535008E-3,2.806604E-4,-3.9057038E-4,1.3408579E-4,3.3208262E-4,-1.681814E-3,4.613707E-5,1.3988107E-4,-9.924394E-5,2.2067507E-4],"split_indices":[0,1,0,0,1,0,1,2,2,0,1,0,0,0,0,0,0,0,0,0,0,0,0,0,0],"split_type":[0,0,0,0,0,0,0,0,0,0,0,0,0,0,0,0,0,0,0,0,0,0,0,0,0],"sum_hessian":[8.2E1,8.1E1,1E0,4.6E1,3.5E1,3.4E1,1.2E1,3.1E1,4E0,3.1E1,3E0,2E0,1E1,3E1,1E0,3E0,1E0,2.3E1,8E0,1E0,2E0,3E0,7E0,1E1,2E1],"tree_param":{"num_deleted":"0","num_feature":"6","num_nodes":"25","size_leaf_vector":"1"}},{"base_weights":[2.9082038E-3,-2.4605688E-4,6.5389397E-3,-4.6134708E-3,5.4626795E-3,-6.85777E-3,1.7837555E-3,3.2591315E-3,1.847285E-2,-4.857124E-3,-2.1148495E-2,-2.9425943E-5,2.2685798E-3,2.1654807E-3,9.290576E-4,4.1461983E-4,1.1247844E-3,-3.7185563E-4,1.2812631E-4,3.2378064E-4,-1.6257536E-3,6.1022118E-5,1.4693104E-4,-9.4732946E-5,2.0945513E-4],"categories":[],"categories_nodes":[],"categories_segments":[],"categories_sizes":[],"default_left":[0,0,0,0,0,0,0,0,0,0,0,0,0,0,0,0,0,0,0,0,0,0,0,0,0],"id":48,"left_children":[1,3,-1,5,7,9,11,13,15,17,19,-1,21,23,-1,-1,-1,-1,-1,-1,-1,-1,-1,-1,-1],"loss_changes":[3.350916E-2,2.0696598E-3,0E0,6.8702514E-4,9.7186177E-4,8.9795317E-4,1.6286882E-5,4.959849E-4,1.8228428E-5,6.316214E-4,1.4665212E-3,0E0,4.1388266E-6,2.6263873E-4,0E0,0E0,0E0,0E0,0E0,0E0,0E0,0E0,0E0,0E0,0E0],"parents":[2147483647,0,0,1,1,3,3,4,4,5,5,6,6,7,7,8,8,9,9,10,10,12,12,13,13],"right_children":[2,4,-1,6,8,10,12,14,16,18,20,-1,22,24,-1,-1,-1,-1,-1,-1,-1,-1,-1,-1,-1],"split_conditions":[7.625892E0,-1.3123418E-1,6.5389397E-3,-9.661375E-2,7.614425E-1,-2.7292666E-1,-2.9461277E-1,1.2874223E0,1.5254651E0,-4.257312E-1,-2.1836942E-1,-2.9425943E-5,1.5022434E-1,-2.3766409E-1,9.290576E-4,4.1461983E-4,1.1247844E-3,-3.7185563E-4,1.2812631E-4,3.2378064E-4,-1.6257536E-3,6.1022118E-5,1.4693104E-4,-9.4732946E-5,2.0945513E-4],"split_indices":[0,1,0,0,0,0,1,2,0,0,1,0,0,0,0,0,0,0,0,0,0,0,0,0,0],"split_type":[0,0,0,0,0,0,0,0,0,0,0,0,0,0,0,0,0,0,0,0,0,0,0,0,0],"sum_hessian":[8.2E1,8.1E1,1E0,4.6E1,3.5E1,3.4E1,1.2E1,3.1E1,4E0,3.1E1,3E0,2E0,1E1,3E1,1E0,2E0,2E0,2.3E1,8E0,1E0,2E0,5E0,5E0,1E1,2E1],"tree_param":{"num_deleted":"0","num_feature":"6","num_nodes":"25","size_leaf_vector":"1"}},{"base_weights":[2.856228E-3,-2.189235E-4,6.3754665E-3,-4.4118855E-3,5.2613025E-3,-6.559044E-3,1.7083029E-3,3.1287954E-3,1.7857086E-2,-4.6218843E-3,-2.0416565E-2,-2.84452E-5,2.1740592E-3,2.06091E-3,9.0583117E-4,4.00799E-4,1.0872915E-3,-3.5403753E-4,1.2243175E-4,3.1568613E-4,-1.5715618E-3,5.8479607E-5,1.4080915E-4,-9.042685E-5,1.9948122E-4],"categories":[],"categories_nodes":[],"categories_segments":[],"categories_sizes":[],"default_left":[0,0,0,0,0,0,0,0,0,0,0,0,0,0,0,0,0,0,0,0,0,0,0,0,0],"id":49,"left_children":[1,3,-1,5,7,9,11,13,15,17,19,-1,21,23,-1,-1,-1,-1,-1,-1,-1,-1,-1,-1,-1],"loss_changes":[3.1844072E-2,1.9074393E-3,0E0,6.288326E-4,9.111103E-4,8.4518525E-4,1.5024929E-5,4.7483237E-4,1.7033657E-5,5.73673E-4,1.3761491E-3,0E0,3.8011276E-6,2.385702E-4,0E0,0E0,0E0,0E0,0E0,0E0,0E0,0E0,0E0,0E0,0E0],"parents":[2147483647,0,0,1,1,3,3,4,4,5,5,6,6,7,7,8,8,9,9,10,10,12,12,13,13],"right_children":[2,4,-1,6,8,10,12,14,16,18,20,-1,22,24,-1,-1,-1,-1,-1,-1,-1,-1,-1,-1,-1],"split_conditions":[7.625892E0,-1.3123418E-1,6.3754665E-3,-9.661375E-2,7.614425E-1,-2.7292666E-1,-2.9461277E-1,1.2874223E0,1.5254651E0,-4.257312E-1,-2.1836942E-1,-2.84452E-5,1.5022434E-1,-2.3766409E-1,9.0583117E-4,4.00799E-4,1.0872915E-3,-3.5403753E-4,1.2243175E-4,3.1568613E-4,-1.5715618E-3,5.8479607E-5,1.4080915E-4,-9.042685E-5,1.9948122E-4],"split_indices":[0,1,0,0,0,0,1,2,0,0,1,0,0,0,0,0,0,0,0,0,0,0,0,0,0],"split_type":[0,0,0,0,0,0,0,0,0,0,0,0,0,0,0,0,0,0,0,0,0,0,0,0,0],"sum_hessian":[8.2E1,8.1E1,1E0,4.6E1,3.5E1,3.4E1,1.2E1,3.1E1,4E0,3.1E1,3E0,2E0,1E1,3E1,1E0,2E0,2E0,2.3E1,8E0,1E0,2E0,5E0,5E0,1E1,2E1],"tree_param":{"num_deleted":"0","num_feature":"6","num_nodes":"25","size_leaf_vector":"1"}},{"base_weights":[2.8045215E-3,-1.935107E-4,6.216079E-3,-1.9957614E-3,1.16206305E-2,-6.429278E-3,8.072216E-4,7.1960036E-3,1.0510485E-3,-4.9189115E-3,-1.7376028E-2,2.267161E-5,8.831855E-4,4.500377E-4,2.9312572E-5,-3.8900922E-4,2.1857191E-5,-1.2544257E-3,-4.8776343E-5,-1.9068165E-4,1.1755234E-4],"categories":[],"categories_nodes":[],"categories_segments":[],"categories_sizes":[],"default_left":[0,0,0,0,0,0,0,0,0,0,0,0,0,0,0,0,0,0,0,0,0],"id":50,"left_children":[1,3,-1,5,7,9,11,13,-1,15,17,19,-1,-1,-1,-1,-1,-1,-1,-1,-1],"loss_changes":[3.0261958E-2,1.7691395E-3,0E0,8.999391E-4,3.0625588E-4,3.774697E-4,5.9471367E-4,1.0208384E-4,0E0,4.018547E-4,3.5499147E-4,4.0198964E-4,0E0,0E0,0E0,0E0,0E0,0E0,0E0,0E0,0E0],"parents":[2147483647,0,0,1,1,3,3,4,4,5,5,6,6,7,7,9,9,10,10,11,11],"right_children":[2,4,-1,6,8,10,12,14,-1,16,18,20,-1,-1,-1,-1,-1,-1,-1,-1,-1],"split_conditions":[7.625892E0,1.8463108E-1,6.216079E-3,-4.257312E-1,1.5254651E0,-4.609938E-1,7.916732E0,1.1600416E0,1.0510485E-3,-5.4327315E-1,-3.2728848E-1,-9.661375E-2,8.831855E-4,4.500377E-4,2.9312572E-5,-3.8900922E-4,2.1857191E-5,-1.2544257E-3,-4.8776343E-5,-1.9068165E-4,1.1755234E-4],"split_indices":[0,1,0,0,0,0,2,3,0,0,1,0,0,0,0,0,0,0,0,0,0],"split_type":[0,0,0,0,0,0,0,0,0,0,0,0,0,0,0,0,0,0,0,0,0],"sum_hessian":[8.2E1,8.1E1,1E0,7.1E1,1E1,2.7E1,4.4E1,8E0,2E0,2.5E1,2E0,4.3E1,1E0,6E0,2E0,1.6E1,9E0,1E0,1E0,1.6E1,2.7E1],"tree_param":{"num_deleted":"0","num_feature":"6","num_nodes":"21","size_leaf_vector":"1"}},{"base_weights":[2.7472605E-3,-1.7566443E-4,6.060678E-3,-4.265105E-3,4.671717E-3,-6.1501144E-3,1.4311802E-3,2.7679596E-3,1.6682923E-2,-4.220552E-3,-1.9566694E-2,2.2413155E-4,1.3004369E-4,1.8080728E-3,8.611057E-4,3.7423027E-4,1.0160133E-3,-3.335235E-4,1.2546497E-4,3.12561E-4,-1.5128203E-3,-3.14155E-5,3.453851E-5,-1.22017125E-4,1.6325897E-4],"categories":[],"categories_nodes":[],"categories_segments":[],"categories_sizes":[],"default_left":[0,0,0,0,0,0,0,0,0,0,0,0,0,0,0,0,0,0,0,0,0,0,0,0,0],"id":51,"left_children":[1,3,-1,5,7,9,11,13,15,17,19,21,-1,23,-1,-1,-1,-1,-1,-1,-1,-1,-1,-1,-1],"loss_changes":[2.8761543E-2,1.6454177E-3,0E0,4.9199176E-4,8.227464E-4,7.976142E-4,1.6359583E-5,4.405892E-4,1.519802E-5,5.278532E-4,1.2930834E-3,3.2184923E-6,0E0,2.1225115E-4,0E0,0E0,0E0,0E0,0E0,0E0,0E0,0E0,0E0,0E0,0E0],"parents":[2147483647,0,0,1,1,3,3,4,4,5,5,6,6,7,7,8,8,9,9,10,10,11,11,13,13],"right_children":[2,4,-1,6,8,10,12,14,16,18,20,22,-1,24,-1,-1,-1,-1,-1,-1,-1,-1,-1,-1,-1],"split_conditions":[7.625892E0,-1.4212608E-1,6.060678E-3,-9.661375E-2,7.1833444E-1,-2.7292666E-1,1.5022434E-1,7.916732E0,1.5254651E0,-4.257312E-1,-2.1836942E-1,-2.9461277E-1,1.3004369E-4,-3.1994346E-1,8.611057E-4,3.7423027E-4,1.0160133E-3,-3.335235E-4,1.2546497E-4,3.12561E-4,-1.5128203E-3,-3.14155E-5,3.453851E-5,-1.22017125E-4,1.6325897E-4],"split_indices":[0,1,0,0,1,0,0,2,0,0,1,1,0,0,0,0,0,0,0,0,0,0,0,0,0],"split_type":[0,0,0,0,0,0,0,0,0,0,0,0,0,0,0,0,0,0,0,0,0,0,0,0,0],"sum_hessian":[8.2E1,8.1E1,1E0,4.4E1,3.7E1,3.3E1,1.1E1,3.3E1,4E0,3E1,3E0,6E0,5E0,3.2E1,1E0,2E0,2E0,2.2E1,8E0,1E0,2E0,2E0,4E0,8E0,2.4E1],"tree_param":{"num_deleted":"0","num_feature":"6","num_nodes":"25","size_leaf_vector":"1"}},{"base_weights":[2.6951774E-3,-1.5447225E-4,5.909161E-3,-1.835527E-3,1.08628385E-2,-5.8836252E-3,7.2407903E-4,6.729159E-3,9.821465E-4,-4.3989294E-3,-1.6789779E-2,-2.2717328E-5,8.39578E-4,4.2277723E-4,2.2893648E-5,-3.8180413E-4,7.044524E-7,-1.2147271E-3,-4.4506418E-5,-1.774036E-4,1.059244E-4],"categories":[],"categories_nodes":[],"categories_segments":[],"categories_sizes":[],"default_left":[0,0,0,0,0,0,0,0,0,0,0,0,0,0,0,0,0,0,0,0,0],"id":52,"left_children":[1,3,-1,5,7,9,11,13,-1,15,17,19,-1,-1,-1,-1,-1,-1,-1,-1,-1],"loss_changes":[2.7333595E-2,1.5386365E-3,0E0,7.502908E-4,2.6705454E-4,3.7952792E-4,5.403426E-4,9.356835E-5,0E0,3.7153356E-4,3.36344E-4,3.396509E-4,0E0,0E0,0E0,0E0,0E0,0E0,0E0,0E0,0E0],"parents":[2147483647,0,0,1,1,3,3,4,4,5,5,6,6,7,7,9,9,10,10,11,11],"right_children":[2,4,-1,6,8,10,12,14,-1,16,18,20,-1,-1,-1,-1,-1,-1,-1,-1,-1],"split_conditions":[7.625892E0,1.8463108E-1,5.909161E-3,-4.257312E-1,1.5254651E0,-4.609938E-1,7.916732E0,1.1600416E0,9.821465E-4,-5.667815E-1,-3.2728848E-1,-9.661375E-2,8.39578E-4,4.2277723E-4,2.2893648E-5,-3.8180413E-4,7.044524E-7,-1.2147271E-3,-4.4506418E-5,-1.774036E-4,1.059244E-4],"split_indices":[0,1,0,0,0,0,2,3,0,0,1,0,0,0,0,0,0,0,0,0,0],"split_type":[0,0,0,0,0,0,0,0,0,0,0,0,0,0,0,0,0,0,0,0,0],"sum_hessian":[8.2E1,8.1E1,1E0,7.1E1,1E1,2.7E1,4.4E1,8E0,2E0,2.5E1,2E0,4.3E1,1E0,6E0,2E0,1.4E1,1.1E1,1E0,1E0,1.6E1,2.7E1],"tree_param":{"num_deleted":"0","num_feature":"6","num_nodes":"21","size_leaf_vector":"1"}},{"base_weights":[2.6383097E-3,-1.3997074E-4,5.761433E-3,-3.9425446E-3,4.3667606E-3,-5.667588E-3,1.2736246E-3,2.588505E-3,1.5585547E-2,-3.7960168E-3,-1.875537E-2,1.2257908E-4,1.2021201E-4,1.674716E-3,8.185886E-4,8.630557E-4,2.2208206E-4,-3.058168E-4,1.2777331E-4,3.0918216E-4,-1.4564794E-3,-3.3899025E-5,2.891995E-5,-1.1036492E-4,1.5026263E-4],"categories":[],"categories_nodes":[],"categories_segments":[],"categories_sizes":[],"default_left":[0,0,0,0,0,0,0,0,0,0,0,0,0,0,0,0,0,0,0,0,0,0,0,0,0],"id":53,"left_children":[1,3,-1,5,7,9,11,13,15,17,19,21,-1,23,-1,-1,-1,-1,-1,-1,-1,-1,-1,-1,-1],"loss_changes":[2.5979154E-2,1.4224648E-3,0E0,4.121338E-4,7.177519E-4,7.616248E-4,1.532197E-5,4.0081187E-4,1.6694074E-5,4.7249155E-4,1.215018E-3,2.94652E-6,0E0,1.7708383E-4,0E0,0E0,0E0,0E0,0E0,0E0,0E0,0E0,0E0,0E0,0E0],"parents":[2147483647,0,0,1,1,3,3,4,4,5,5,6,6,7,7,8,8,9,9,10,10,11,11,13,13],"right_children":[2,4,-1,6,8,10,12,14,16,18,20,22,-1,24,-1,-1,-1,-1,-1,-1,-1,-1,-1,-1,-1],"split_conditions":[7.625892E0,-1.4212608E-1,5.761433E-3,-9.661375E-2,7.614425E-1,-2.7292666E-1,1.5022434E-1,7.916732E0,9.688483E-1,-4.257312E-1,-2.1836942E-1,-2.9461277E-1,1.2021201E-4,-3.1994346E-1,8.185886E-4,8.630557E-4,2.2208206E-4,-3.058168E-4,1.2777331E-4,3.0918216E-4,-1.4564794E-3,-3.3899025E-5,2.891995E-5,-1.1036492E-4,1.5026263E-4],"split_indices":[0,1,0,0,0,0,0,2,1,0,1,1,0,0,0,0,0,0,0,0,0,0,0,0,0],"split_type":[0,0,0,0,0,0,0,0,0,0,0,0,0,0,0,0,0,0,0,0,0,0,0,0,0],"sum_hessian":[8.2E1,8.1E1,1E0,4.4E1,3.7E1,3.3E1,1.1E1,3.3E1,4E0,3E1,3E0,6E0,5E0,3.2E1,1E0,3E0,1E0,2.2E1,8E0,1E0,2E0,2E0,4E0,8E0,2.4E1],"tree_param":{"num_deleted":"0","num_feature":"6","num_nodes":"25","size_leaf_vector":"1"}},{"base_weights":[2.5846467E-3,-1.2402658E-4,5.6173964E-3,-1.6897571E-3,1.01356665E-2,-2.1632037E-3,7.981237E-4,6.2504336E-3,9.206404E-4,-4.704367E-3,1.9073103E-3,3.9447562E-4,1.712193E-5,-1.6411518E-4,-9.052213E-4,2.1418024E-5,1.5802548E-4],"categories":[],"categories_nodes":[],"categories_segments":[],"categories_sizes":[],"default_left":[0,0,0,0,0,0,0,0,0,0,0,0,0,0,0,0,0],"id":54,"left_children":[1,3,-1,5,7,9,-1,11,-1,13,15,-1,-1,-1,-1,-1,-1],"loss_changes":[2.4690904E-2,1.3343677E-3,0E0,6.36262E-4,2.3865688E-4,7.433854E-4,0E0,8.445137E-5,0E0,7.7902817E-4,5.0541887E-5,0E0,0E0,0E0,0E0,0E0,0E0],"parents":[2147483647,0,0,1,1,3,3,4,4,5,5,7,7,9,9,10,10],"right_children":[2,4,-1,6,8,10,-1,12,-1,14,16,-1,-1,-1,-1,-1,-1],"split_conditions":[7.625892E0,1.8463108E-1,5.6173964E-3,7.916732E0,1.5254651E0,-9.661375E-2,7.981237E-4,1.1600416E0,9.206404E-4,-2.3766409E-1,3.2653728E-1,3.9447562E-4,1.712193E-5,-1.6411518E-4,-9.052213E-4,2.1418024E-5,1.5802548E-4],"split_indices":[0,1,0,2,0,0,0,3,0,0,0,0,0,0,0,0,0],"split_type":[0,0,0,0,0,0,0,0,0,0,0,0,0,0,0,0,0],"sum_hessian":[8.2E1,8.1E1,1E0,7.1E1,1E1,7E1,1E0,8E0,2E0,4.3E1,2.7E1,6E0,2E0,4E1,3E0,1.3E1,1.4E1],"tree_param":{"num_deleted":"0","num_feature":"6","num_nodes":"17","size_leaf_vector":"1"}},{"base_weights":[2.5380384E-3,-1.026988E-4,5.4769623E-3,-1.6065446E-3,9.749992E-3,-2.067578E-3,7.781707E-4,5.9836432E-3,8.89952E-4,-4.4934526E-3,1.8183531E-3,3.775694E-4,1.6551216E-5,-1.5610961E-4,-8.7127555E-4,2.0423638E-5,1.506509E-4],"categories":[],"categories_nodes":[],"categories_segments":[],"categories_sizes":[],"default_left":[0,0,0,0,0,0,0,0,0,0,0,0,0,0,0,0,0],"id":55,"left_children":[1,3,-1,5,7,9,-1,11,-1,13,15,-1,-1,-1,-1,-1,-1],"loss_changes":[2.34639E-2,1.2306519E-3,0E0,6.021251E-4,2.269675E-4,6.774722E-4,0E0,7.725708E-5,0E0,7.25856E-4,4.5930617E-5,0E0,0E0,0E0,0E0,0E0,0E0],"parents":[2147483647,0,0,1,1,3,3,4,4,5,5,7,7,9,9,10,10],"right_children":[2,4,-1,6,8,10,-1,12,-1,14,16,-1,-1,-1,-1,-1,-1],"split_conditions":[7.625892E0,1.8463108E-1,5.4769623E-3,7.916732E0,1.5254651E0,-9.661375E-2,7.781707E-4,1.1600416E0,8.89952E-4,-2.3766409E-1,3.2653728E-1,3.775694E-4,1.6551216E-5,-1.5610961E-4,-8.7127555E-4,2.0423638E-5,1.506509E-4],"split_indices":[0,1,0,2,0,0,0,3,0,0,0,0,0,0,0,0,0],"split_type":[0,0,0,0,0,0,0,0,0,0,0,0,0,0,0,0,0],"sum_hessian":[8.2E1,8.1E1,1E0,7.1E1,1E1,7E1,1E0,8E0,2E0,4.3E1,2.7E1,6E0,2E0,4E1,3E0,1.3E1,1.4E1],"tree_param":{"num_deleted":"0","num_feature":"6","num_nodes":"17","size_leaf_vector":"1"}},{"base_weights":[2.4916534E-3,-8.285736E-5,5.3400383E-3,-1.5273024E-3,9.379225E-3,-5.0792475E-3,7.1673683E-4,5.728252E-3,8.602868E-4,-3.6217486E-3,-1.6017823E-2,4.3284064E-5,7.587165E-4,3.6138794E-4,1.5999378E-5,-3.3672588E-4,2.855123E-5,-1.1687079E-3,-3.2628886E-5,-1.105716E-4,1.0990435E-4],"categories":[],"categories_nodes":[],"categories_segments":[],"categories_sizes":[],"default_left":[0,0,0,0,0,0,0,0,0,0,0,0,0,0,0,0,0,0,0,0,0],"id":56,"left_children":[1,3,-1,5,7,9,11,13,-1,15,17,19,-1,-1,-1,-1,-1,-1,-1,-1,-1],"loss_changes":[2.2298077E-2,1.1350565E-3,0E0,5.775312E-4,2.1575944E-4,3.8839044E-4,4.3748593E-4,7.0674694E-5,0E0,3.4317505E-4,3.238421E-4,2.1863356E-4,0E0,0E0,0E0,0E0,0E0,0E0,0E0,0E0,0E0],"parents":[2147483647,0,0,1,1,3,3,4,4,5,5,6,6,7,7,9,9,10,10,11,11],"right_children":[2,4,-1,6,8,10,12,14,-1,16,18,20,-1,-1,-1,-1,-1,-1,-1,-1,-1],"split_conditions":[7.625892E0,1.8463108E-1,5.3400383E-3,-4.257312E-1,1.5254651E0,-4.609938E-1,7.916732E0,1.1600416E0,8.602868E-4,-5.667815E-1,-3.2728848E-1,-1.549216E-1,7.587165E-4,3.6138794E-4,1.5999378E-5,-3.3672588E-4,2.855123E-5,-1.1687079E-3,-3.2628886E-5,-1.105716E-4,1.0990435E-4],"split_indices":[0,1,0,0,0,0,2,3,0,0,1,2,0,0,0,0,0,0,0,0,0],"split_type":[0,0,0,0,0,0,0,0,0,0,0,0,0,0,0,0,0,0,0,0,0],"sum_hessian":[8.2E1,8.1E1,1E0,7.1E1,1E1,2.7E1,4.4E1,8E0,2E0,2.5E1,2E0,4.3E1,1E0,6E0,2E0,1.4E1,1.1E1,1E0,1E0,2.1E1,2.2E1],"tree_param":{"num_deleted":"0","num_feature":"6","num_nodes":"21","size_leaf_vector":"1"}},{"base_weights":[2.4372658E-3,-7.278563E-5,5.2065374E-3,-3.3722392E-3,3.8363775E-3,-4.852106E-3,1.1017366E-3,2.2842672E-3,1.3623452E-2,-3.161117E-3,-1.6744245E-2,1.1165546E-4,1.0366043E-4,1.4568226E-3,7.397484E-4,7.573687E-4,1.8819422E-4,-2.576062E-4,1.603522E-4,3.4311748E-4,-1.3450279E-3,-3.782722E-5,3.0512214E-5,-9.244006E-5,1.2942872E-4],"categories":[],"categories_nodes":[],"categories_segments":[],"categories_sizes":[],"default_left":[0,0,0,0,0,0,0,0,0,0,0,0,0,0,0,0,0,0,0,0,0,0,0,0,0],"id":57,"left_children":[1,3,-1,5,7,9,11,13,15,17,19,21,-1,23,-1,-1,-1,-1,-1,-1,-1,-1,-1,-1,-1],"loss_changes":[2.1193815E-2,1.0705816E-3,0E0,3.0328566E-4,5.461239E-4,6.307917E-4,1.1310546E-5,3.304113E-4,1.8113002E-5,4.0957372E-4,1.143625E-3,3.4918E-6,0E0,1.2824356E-4,0E0,0E0,0E0,0E0,0E0,0E0,0E0,0E0,0E0,0E0,0E0],"parents":[2147483647,0,0,1,1,3,3,4,4,5,5,6,6,7,7,8,8,9,9,10,10,11,11,13,13],"right_children":[2,4,-1,6,8,10,12,14,16,18,20,22,-1,24,-1,-1,-1,-1,-1,-1,-1,-1,-1,-1,-1],"split_conditions":[7.625892E0,-1.4212608E-1,5.2065374E-3,-9.661375E-2,7.1833444E-1,-2.7292666E-1,1.5022434E-1,7.916732E0,-3.816315E-1,-4.13977E-1,-2.1836942E-1,-2.9461277E-1,1.0366043E-4,-3.1994346E-1,7.397484E-4,7.573687E-4,1.8819422E-4,-2.576062E-4,1.603522E-4,3.4311748E-4,-1.3450279E-3,-3.782722E-5,3.0512214E-5,-9.244006E-5,1.2942872E-4],"split_indices":[0,1,0,0,1,0,0,2,2,0,1,1,0,0,0,0,0,0,0,0,0,0,0,0,0],"split_type":[0,0,0,0,0,0,0,0,0,0,0,0,0,0,0,0,0,0,0,0,0,0,0,0,0],"sum_hessian":[8.2E1,8.1E1,1E0,4.4E1,3.7E1,3.3E1,1.1E1,3.3E1,4E0,3E1,3E0,6E0,5E0,3.2E1,1E0,3E0,1E0,2.3E1,7E0,1E0,2E0,2E0,4E0,8E0,2.4E1],"tree_param":{"num_deleted":"0","num_feature":"6","num_nodes":"25","size_leaf_vector":"1"}},{"base_weights":[2.3867995E-3,-6.0373237E-5,5.0763744E-3,-3.2259123E-3,3.6898803E-3,-4.641828E-3,1.0546757E-3,2.192351E-3,1.3135103E-2,-3.0061977E-3,-1.6157508E-2,1.0502764E-4,9.9340956E-5,1.384538E-3,7.2125456E-4,2.8822647E-4,8.0636545E-4,-2.535833E-4,1.303122E-4,3.3453965E-4,-1.3001937E-3,-3.6566333E-5,2.9291734E-5,-8.833164E-5,1.231789E-4],"categories":[],"categories_nodes":[],"categories_segments":[],"categories_sizes":[],"default_left":[0,0,0,0,0,0,0,0,0,0,0,0,0,0,0,0,0,0,0,0,0,0,0,0,0],"id":58,"left_children":[1,3,-1,5,7,9,11,13,15,17,19,21,-1,23,-1,-1,-1,-1,-1,-1,-1,-1,-1,-1,-1],"loss_changes":[2.0143121E-2,9.853723E-4,0E0,2.7763852E-4,5.086941E-4,5.918309E-4,1.0413826E-5,3.1600805E-4,1.7305021E-5,3.725799E-4,1.0738773E-3,3.2433118E-6,0E0,1.16560135E-4,0E0,0E0,0E0,0E0,0E0,0E0,0E0,0E0,0E0,0E0,0E0],"parents":[2147483647,0,0,1,1,3,3,4,4,5,5,6,6,7,7,8,8,9,9,10,10,11,11,13,13],"right_children":[2,4,-1,6,8,10,12,14,16,18,20,22,-1,24,-1,-1,-1,-1,-1,-1,-1,-1,-1,-1,-1],"split_conditions":[7.625892E0,-1.4212608E-1,5.0763744E-3,-9.661375E-2,7.614425E-1,-2.7292666E-1,1.5022434E-1,7.916732E0,1.5254651E0,-4.257312E-1,-2.1836942E-1,-2.9461277E-1,9.9340956E-5,-3.1994346E-1,7.2125456E-4,2.8822647E-4,8.0636545E-4,-2.535833E-4,1.303122E-4,3.3453965E-4,-1.3001937E-3,-3.6566333E-5,2.9291734E-5,-8.833164E-5,1.231789E-4],"split_indices":[0,1,0,0,0,0,0,2,0,0,1,1,0,0,0,0,0,0,0,0,0,0,0,0,0],"split_type":[0,0,0,0,0,0,0,0,0,0,0,0,0,0,0,0,0,0,0,0,0,0,0,0,0],"sum_hessian":[8.2E1,8.1E1,1E0,4.4E1,3.7E1,3.3E1,1.1E1,3.3E1,4E0,3E1,3E0,6E0,5E0,3.2E1,1E0,2E0,2E0,2.2E1,8E0,1E0,2E0,2E0,4E0,8E0,2.4E1],"tree_param":{"num_deleted":"0","num_feature":"6","num_nodes":"25","size_leaf_vector":"1"}},{"base_weights":[2.3389093E-3,-4.6940655E-5,4.9494654E-3,-1.3523332E-3,8.501715E-3,-1.7675622E-3,7.0322305E-4,5.7781315E-3,8.9343864E-4,-3.841094E-3,1.5539721E-3,3.5849106E-4,7.045766E-6,-1.300536E-4,-7.795523E-4,2.2981601E-5,1.4873948E-4],"categories":[],"categories_nodes":[],"categories_segments":[],"categories_sizes":[],"default_left":[0,0,0,0,0,0,0,0,0,0,0,0,0,0,0,0,0],"id":59,"left_children":[1,3,-1,5,7,9,-1,11,-1,13,15,-1,-1,-1,-1,-1,-1],"loss_changes":[1.9143896E-2,9.26564E-4,0E0,4.8576773E-4,1.7738342E-4,4.9496774E-4,0E0,7.744221E-5,0E0,6.0053536E-4,4.2168707E-5,0E0,0E0,0E0,0E0,0E0,0E0],"parents":[2147483647,0,0,1,1,3,3,4,4,5,5,7,7,9,9,10,10],"right_children":[2,4,-1,6,8,10,-1,12,-1,14,16,-1,-1,-1,-1,-1,-1],"split_conditions":[7.625892E0,1.8463108E-1,4.9494654E-3,7.916732E0,1.7723032E0,-9.661375E-2,7.0322305E-4,1.1600416E0,8.9343864E-4,-2.3766409E-1,4.793418E-1,3.5849106E-4,7.045766E-6,-1.300536E-4,-7.795523E-4,2.2981601E-5,1.4873948E-4],"split_indices":[0,1,0,2,0,0,0,3,0,0,0,0,0,0,0,0,0],"split_type":[0,0,0,0,0,0,0,0,0,0,0,0,0,0,0,0,0],"sum_hessian":[8.2E1,8.1E1,1E0,7.1E1,1E1,7E1,1E0,9E0,1E0,4.3E1,2.7E1,7E0,2E0,4E1,3E0,1.6E1,1.1E1],"tree_param":{"num_deleted":"0","num_feature":"6","num_nodes":"17","size_leaf_vector":"1"}},{"base_weights":[2.2963455E-3,-2.9664487E-5,4.8257294E-3,-1.2851995E-3,8.19108E-3,-1.6895784E-3,6.8564265E-4,5.5257776E-3,8.711025E-4,-3.6697139E-3,1.482405E-3,3.4280703E-4,6.810824E-6,-1.237096E-4,-7.5031916E-4,2.1900129E-5,1.4192208E-4],"categories":[],"categories_nodes":[],"categories_segments":[],"categories_sizes":[],"default_left":[0,0,0,0,0,0,0,0,0,0,0,0,0,0,0,0,0],"id":60,"left_children":[1,3,-1,5,7,9,-1,11,-1,13,15,-1,-1,-1,-1,-1,-1],"loss_changes":[1.8192528E-2,8.568846E-4,0E0,4.598415E-4,1.7436623E-4,4.5138795E-4,0E0,7.076684E-5,0E0,5.592137E-4,3.8411694E-5,0E0,0E0,0E0,0E0,0E0,0E0],"parents":[2147483647,0,0,1,1,3,3,4,4,5,5,7,7,9,9,10,10],"right_children":[2,4,-1,6,8,10,-1,12,-1,14,16,-1,-1,-1,-1,-1,-1],"split_conditions":[7.625892E0,1.8463108E-1,4.8257294E-3,7.916732E0,1.7723032E0,-9.661375E-2,6.8564265E-4,1.1600416E0,8.711025E-4,-2.3766409E-1,4.793418E-1,3.4280703E-4,6.810824E-6,-1.237096E-4,-7.5031916E-4,2.1900129E-5,1.4192208E-4],"split_indices":[0,1,0,2,0,0,0,3,0,0,0,0,0,0,0,0,0],"split_type":[0,0,0,0,0,0,0,0,0,0,0,0,0,0,0,0,0],"sum_hessian":[8.2E1,8.1E1,1E0,7.1E1,1E1,7E1,1E0,9E0,1E0,4.3E1,2.7E1,7E0,2E0,4E1,3E0,1.6E1,1.1E1],"tree_param":{"num_deleted":"0","num_feature":"6","num_nodes":"17","size_leaf_vector":"1"}},{"base_weights":[2.2540817E-3,-1.3593584E-5,4.7050864E-3,-1.2212805E-3,7.8925025E-3,-1.6151023E-3,6.685015E-4,5.284452E-3,8.493252E-4,-3.5060926E-3,1.4141364E-3,6.556186E-3,6.58383E-6,-1.1767501E-4,-7.221822E-4,2.0869493E-5,1.3541747E-4,1.4105513E-4,3.665515E-4],"categories":[],"categories_nodes":[],"categories_segments":[],"categories_sizes":[],"default_left":[0,0,0,0,0,0,0,0,0,0,0,0,0,0,0,0,0,0,0],"id":61,"left_children":[1,3,-1,5,7,9,-1,11,-1,13,15,17,-1,-1,-1,-1,-1,-1,-1],"loss_changes":[1.7288571E-2,7.925822E-4,0E0,4.3533294E-4,1.7112942E-4,4.1166472E-4,0E0,6.4666296E-5,0E0,5.206947E-4,3.4989633E-5,2.4712353E-6,0E0,0E0,0E0,0E0,0E0,0E0,0E0],"parents":[2147483647,0,0,1,1,3,3,4,4,5,5,7,7,9,9,10,10,11,11],"right_children":[2,4,-1,6,8,10,-1,12,-1,14,16,18,-1,-1,-1,-1,-1,-1,-1],"split_conditions":[7.625892E0,1.8463108E-1,4.7050864E-3,7.916732E0,1.7723032E0,-9.661375E-2,6.685015E-4,1.1600416E0,8.493252E-4,-2.3766409E-1,4.793418E-1,2.7176633E-1,6.58383E-6,-1.1767501E-4,-7.221822E-4,2.0869493E-5,1.3541747E-4,1.4105513E-4,3.665515E-4],"split_indices":[0,1,0,2,0,0,0,3,0,0,0,1,0,0,0,0,0,0,0],"split_type":[0,0,0,0,0,0,0,0,0,0,0,0,0,0,0,0,0,0,0],"sum_hessian":[8.2E1,8.1E1,1E0,7.1E1,1E1,7E1,1E0,9E0,1E0,4.3E1,2.7E1,7E0,2E0,4E1,3E0,1.6E1,1.1E1,2E0,5E0],"tree_param":{"num_deleted":"0","num_feature":"6","num_nodes":"19","size_leaf_vector":"1"}},{"base_weights":[2.2143105E-3,3.5290311E-6,4.58746E-3,-2.7371102E-3,3.2489302E-3,-7.298628E-3,-1.3939913E-3,1.17251305E-2,1.9068733E-3,-3.936912E-4,-5.3046646E-5,5.690563E-4,-6.5548206E-3,-1.234971E-5,1.477991E-2,5.6468847E-4,5.0716484E-3,-3.2379373E-4,1.2322675E-4,-1.3144586E-3,-7.205482E-5,-1.8898398E-6,9.865873E-4,-1.0803775E-4,8.723125E-5,3.1459142E-4,6.364286E-6],"categories":[],"categories_nodes":[],"categories_segments":[],"categories_sizes":[],"default_left":[0,0,0,0,0,0,0,0,0,0,0,0,0,0,0,0,0,0,0,0,0,0,0,0,0,0,0],"id":62,"left_children":[1,3,-1,5,7,9,11,13,15,-1,-1,17,19,-1,21,23,25,-1,-1,-1,-1,-1,-1,-1,-1,-1,-1],"loss_changes":[1.6428865E-2,7.382395E-4,0E0,2.6552557E-4,4.0991232E-4,2.7525355E-5,3.684444E-4,1.8651155E-4,1.4155835E-4,0E0,0E0,3.7650493E-4,9.7127515E-4,0E0,2.942452E-4,8.4165964E-5,5.9529237E-5,0E0,0E0,0E0,0E0,0E0,0E0,0E0,0E0,0E0,0E0],"parents":[2147483647,0,0,1,1,3,3,4,4,5,5,6,6,7,7,8,8,11,11,12,12,14,14,15,15,16,16],"right_children":[2,4,-1,6,8,10,12,14,16,-1,-1,18,20,-1,22,24,26,-1,-1,-1,-1,-1,-1,-1,-1,-1,-1],"split_conditions":[7.625892E0,-1.4212608E-1,4.58746E-3,-6.020441E-1,-7.956551E-1,-2.8372085E-1,-2.1836942E-1,-8.585909E-1,1.8463108E-1,-3.936912E-4,-5.3046646E-5,-5.6075126E-1,-2.0747752E-1,-1.234971E-5,-2.2831196E-1,-3.1994346E-1,1.1600416E0,-3.2379373E-4,1.2322675E-4,-1.3144586E-3,-7.205482E-5,-1.8898398E-6,9.865873E-4,-1.0803775E-4,8.723125E-5,3.1459142E-4,6.364286E-6],"split_indices":[0,1,0,0,5,1,1,3,1,0,0,4,1,0,4,0,3,0,0,0,0,0,0,0,0,0,0],"split_type":[0,0,0,0,0,0,0,0,0,0,0,0,0,0,0,0,0,0,0,0,0,0,0,0,0,0,0],"sum_hessian":[8.2E1,8.1E1,1E0,4.4E1,3.7E1,9E0,3.5E1,4E0,3.3E1,8E0,1E0,2.6E1,9E0,1E0,3E0,2.4E1,9E0,5E0,2.1E1,1E0,8E0,1E0,2E0,7E0,1.7E1,7E0,2E0],"tree_param":{"num_deleted":"0","num_feature":"6","num_nodes":"27","size_leaf_vector":"1"}},{"base_weights":[2.1496937E-3,-5.93098E-6,4.472773E-3,-2.6454497E-3,3.119971E-3,-4.7412463E-3,-2.4480125E-5,1.1333346E-2,1.8203579E-3,-2.802803E-3,-1.2815971E-3,-4.5641846E-4,8.8713283E-4,-1.2040883E-5,1.4287092E-2,5.3562253E-4,4.8501603E-3,-4.100767E-5,-8.2039833E-4,-1.264788E-4,1.4607409E-4,-1.8425286E-6,9.5370115E-4,-1.03310966E-4,8.3112E-5,3.0082796E-4,6.152193E-6],"categories":[],"categories_nodes":[],"categories_segments":[],"categories_sizes":[],"default_left":[0,0,0,0,0,0,0,0,0,0,0,0,0,0,0,0,0,0,0,0,0,0,0,0,0,0,0],"id":63,"left_children":[1,3,-1,5,7,9,11,13,15,17,-1,-1,19,-1,21,23,25,-1,-1,-1,-1,-1,-1,-1,-1,-1,-1],"loss_changes":[1.5621003E-2,6.848256E-4,0E0,2.470698E-4,3.8498925E-4,9.405444E-4,1.8238176E-4,1.743763E-4,1.2974696E-4,6.339255E-4,0E0,0E0,1.4640567E-4,0E0,2.749737E-4,7.671655E-5,5.4396718E-5,0E0,0E0,0E0,0E0,0E0,0E0,0E0,0E0,0E0,0E0],"parents":[2147483647,0,0,1,1,3,3,4,4,5,5,6,6,7,7,8,8,9,9,12,12,14,14,15,15,16,16],"right_children":[2,4,-1,6,8,10,12,14,16,18,-1,-1,20,-1,22,24,26,-1,-1,-1,-1,-1,-1,-1,-1,-1,-1],"split_conditions":[7.625892E0,-1.4212608E-1,4.472773E-3,-4.8706344E-1,-7.956551E-1,4.5293367E-1,-1.0136627E0,-8.585909E-1,1.8463108E-1,-5.242162E-1,-1.2815971E-3,-4.5641846E-4,-5.0801057E-1,-1.2040883E-5,-2.2831196E-1,-3.1994346E-1,1.1600416E0,-4.100767E-5,-8.2039833E-4,-1.264788E-4,1.4607409E-4,-1.8425286E-6,9.5370115E-4,-1.03310966E-4,8.3112E-5,3.0082796E-4,6.152193E-6],"split_indices":[0,1,0,3,5,5,5,3,1,3,0,0,0,0,4,0,3,0,0,0,0,0,0,0,0,0,0],"split_type":[0,0,0,0,0,0,0,0,0,0,0,0,0,0,0,0,0,0,0,0,0,0,0,0,0,0,0],"sum_hessian":[8.2E1,8.1E1,1E0,4.4E1,3.7E1,2.4E1,2E1,4E0,3.3E1,2.3E1,1E0,1E0,1.9E1,1E0,3E0,2.4E1,9E0,2.1E1,2E0,7E0,1.2E1,1E0,2E0,7E0,1.7E1,7E0,2E0],"tree_param":{"num_deleted":"0","num_feature":"6","num_nodes":"27","size_leaf_vector":"1"}},{"base_weights":[2.0797926E-3,-2.2138265E-5,4.360953E-3,-2.5705071E-3,2.9962496E-3,-6.846429E-3,-1.3113482E-3,1.0954643E-2,1.7377727E-3,-7.3818313E-3,-5.0695242E-5,5.587611E-4,-6.229508E-3,-1.173988E-5,1.3810702E-2,5.0803006E-4,4.6383524E-3,-4.120137E-4,-1.4590938E-4,-3.0138643E-4,1.1648391E-4,-1.2495572E-3,-6.840442E-5,-1.796335E-6,9.2191104E-4,-9.879116E-5,7.918705E-5,2.876669E-4,5.9470535E-6],"categories":[],"categories_nodes":[],"categories_segments":[],"categories_sizes":[],"default_left":[0,0,0,0,0,0,0,0,0,0,0,0,0,0,0,0,0,0,0,0,0,0,0,0,0,0,0,0,0],"id":64,"left_children":[1,3,-1,5,7,9,11,13,15,17,-1,19,21,-1,23,25,27,-1,-1,-1,-1,-1,-1,-1,-1,-1,-1,-1,-1],"loss_changes":[1.4855349E-2,6.3844305E-4,0E0,2.3330495E-4,3.615506E-4,2.3742992E-5,3.345907E-4,1.6303116E-4,1.18920434E-4,1.0439369E-5,0E0,3.2897413E-4,8.778917E-4,0E0,2.5696447E-4,6.9926886E-5,4.970646E-5,0E0,0E0,0E0,0E0,0E0,0E0,0E0,0E0,0E0,0E0,0E0,0E0],"parents":[2147483647,0,0,1,1,3,3,4,4,5,5,6,6,7,7,8,8,9,9,11,11,12,12,14,14,15,15,16,16],"right_children":[2,4,-1,6,8,10,12,14,16,18,-1,20,22,-1,24,26,28,-1,-1,-1,-1,-1,-1,-1,-1,-1,-1,-1,-1],"split_conditions":[7.625892E0,-1.4212608E-1,4.360953E-3,-6.020441E-1,-7.956551E-1,-2.8372085E-1,-2.1836942E-1,-8.585909E-1,1.8463108E-1,-6.608151E-1,-5.0695242E-5,-5.6075126E-1,-2.0747752E-1,-1.173988E-5,-2.2831196E-1,-3.1994346E-1,1.1600416E0,-4.120137E-4,-1.4590938E-4,-3.0138643E-4,1.1648391E-4,-1.2495572E-3,-6.840442E-5,-1.796335E-6,9.2191104E-4,-9.879116E-5,7.918705E-5,2.876669E-4,5.9470535E-6],"split_indices":[0,1,0,0,5,1,1,3,1,0,0,4,1,0,4,0,3,0,0,0,0,0,0,0,0,0,0,0,0],"split_type":[0,0,0,0,0,0,0,0,0,0,0,0,0,0,0,0,0,0,0,0,0,0,0,0,0,0,0,0,0],"sum_hessian":[8.2E1,8.1E1,1E0,4.4E1,3.7E1,9E0,3.5E1,4E0,3.3E1,8E0,1E0,2.6E1,9E0,1E0,3E0,2.4E1,9E0,6E0,2E0,5E0,2.1E1,1E0,8E0,1E0,2E0,7E0,1.7E1,7E0,2E0],"tree_param":{"num_deleted":"0","num_feature":"6","num_nodes":"29","size_leaf_vector":"1"}},{"base_weights":[2.017152E-3,-3.2360098E-5,4.2519285E-3,-8.4553054E-4,8.80097E-3,-6.7576743E-3,-5.06067E-5,2.6121092E-4,7.565372E-4,-3.9435597E-4,-9.348716E-5,-3.9777043E-4,5.802341E-4,1.1302006E-4,-7.101861E-5],"categories":[],"categories_nodes":[],"categories_segments":[],"categories_sizes":[],"default_left":[0,0,0,0,0,0,0,0,0,0,0,0,0,0,0],"id":65,"left_children":[1,3,-1,5,7,9,11,-1,-1,-1,-1,13,-1,-1,-1],"loss_changes":[1.4125484E-2,5.964478E-4,0E0,3.5683555E-4,7.94339E-5,3.4938974E-5,2.7976395E-4,0E0,0E0,0E0,0E0,1.8533344E-4,0E0,0E0,0E0],"parents":[2147483647,0,0,1,1,3,3,4,4,5,5,6,6,11,11],"right_children":[2,4,-1,6,8,10,12,-1,-1,-1,-1,14,-1,-1,-1],"split_conditions":[7.625892E0,6.086379E-1,4.2519285E-3,-6.490609E-1,1.7723032E0,-2.8372085E-1,7.916732E0,2.6121092E-4,7.565372E-4,-3.9435597E-4,-9.348716E-5,-6.728272E-1,5.802341E-4,1.1302006E-4,-7.101861E-5],"split_indices":[0,0,0,0,0,1,2,0,0,0,0,3,0,0,0],"split_type":[0,0,0,0,0,0,0,0,0,0,0,0,0,0,0],"sum_hessian":[8.2E1,8.1E1,1E0,7.5E1,6E0,8E0,6.7E1,5E0,1E0,6E0,2E0,6.6E1,1E0,1.8E1,4.8E1],"tree_param":{"num_deleted":"0","num_feature":"6","num_nodes":"15","size_leaf_vector":"1"}},{"base_weights":[1.9814027E-3,-1.6692162E-5,4.1456297E-3,-2.4249286E-3,2.835606E-3,-4.3971487E-3,3.842513E-5,1.0312836E-2,1.6526133E-3,-3.4540892E-4,-1.2963919E-2,-4.4152242E-4,9.2339126E-4,-1.4271774E-5,1.3033763E-2,2.6163255E-4,3.8794565E-3,-2.5640335E-4,1.2366296E-4,-1.3524748E-4,-1.1273327E-3,-1.122033E-4,1.400783E-4,2.4214387E-8,8.689013E-4,-9.122137E-5,6.783779E-5,2.4884037E-4,5.6416695E-5],"categories":[],"categories_nodes":[],"categories_segments":[],"categories_sizes":[],"default_left":[0,0,0,0,0,0,0,0,0,0,0,0,0,0,0,0,0,0,0,0,0,0,0,0,0,0,0,0,0],"id":66,"left_children":[1,3,-1,5,7,9,11,13,15,17,19,-1,21,-1,23,25,27,-1,-1,-1,-1,-1,-1,-1,-1,-1,-1,-1,-1],"loss_changes":[1.3423165E-2,5.701348E-4,0E0,2.1879136E-4,3.1908622E-4,8.6328026E-4,1.7297566E-4,1.479059E-4,1.04299885E-4,2.5533608E-4,7.25484E-4,0E0,1.2526764E-4,0E0,2.2647163E-4,5.273414E-5,3.3630815E-5,0E0,0E0,0E0,0E0,0E0,0E0,0E0,0E0,0E0,0E0,0E0,0E0],"parents":[2147483647,0,0,1,1,3,3,4,4,5,5,6,6,7,7,8,8,9,9,10,10,12,12,14,14,15,15,16,16],"right_children":[2,4,-1,6,8,10,12,14,16,18,20,-1,22,-1,24,26,28,-1,-1,-1,-1,-1,-1,-1,-1,-1,-1,-1,-1],"split_conditions":[7.625892E0,-1.4212608E-1,4.1456297E-3,-4.8706344E-1,-7.956551E-1,-6.728272E-1,-1.0136627E0,-8.585909E-1,1.6284727E-1,-5.667815E-1,-1.8127014E-1,-4.4152242E-4,-5.0801057E-1,-1.4271774E-5,-2.2831196E-1,-3.1994346E-1,1.1600416E0,-2.5640335E-4,1.2366296E-4,-1.3524748E-4,-1.1273327E-3,-1.122033E-4,1.400783E-4,2.4214387E-8,8.689013E-4,-9.122137E-5,6.783779E-5,2.4884037E-4,5.6416695E-5],"split_indices":[0,1,0,3,5,3,5,3,1,0,5,0,0,0,4,0,3,0,0,0,0,0,0,0,0,0,0,0,0],"split_type":[0,0,0,0,0,0,0,0,0,0,0,0,0,0,0,0,0,0,0,0,0,0,0,0,0,0,0,0,0],"sum_hessian":[8.2E1,8.1E1,1E0,4.4E1,3.7E1,2.4E1,2E1,4E0,3.3E1,1.7E1,7E0,1E0,1.9E1,1E0,3E0,2.1E1,1.2E1,6E0,1.1E1,4E0,3E0,7E0,1.2E1,1E0,2E0,7E0,1.4E1,8E0,4E0],"tree_param":{"num_deleted":"0","num_feature":"6","num_nodes":"29","size_leaf_vector":"1"}},{"base_weights":[1.9241781E-3,-2.4058289E-5,4.0419893E-3,-2.3438819E-3,2.7237341E-3,-4.233105E-3,1.6806736E-5,1.8420877E-3,6.1977905E-4,-2.428885E-3,-1.1883596E-3,-4.304844E-4,8.786159E-4,1.2729982E-3,5.4400566E-4,-2.8550116E-5,-7.6218654E-4,-1.07294436E-4,1.3361318E-4,-4.09171E-6,1.4434881E-4],"categories":[],"categories_nodes":[],"categories_segments":[],"categories_sizes":[],"default_left":[0,0,0,0,0,0,0,0,0,0,0,0,0,0,0,0,0,0,0,0,0],"id":67,"left_children":[1,3,-1,5,7,9,11,13,-1,15,-1,-1,17,19,-1,-1,-1,-1,-1,-1,-1],"loss_changes":[1.2762884E-2,5.290844E-4,0E0,2.0076518E-4,3.011979E-4,8.233668E-4,1.6368684E-4,1.713137E-4,0E0,5.626994E-4,0E0,0E0,1.142323E-4,7.676969E-5,0E0,0E0,0E0,0E0,0E0,0E0,0E0],"parents":[2147483647,0,0,1,1,3,3,4,4,5,5,6,6,7,7,9,9,12,12,13,13],"right_children":[2,4,-1,6,8,10,12,14,-1,16,-1,-1,18,20,-1,-1,-1,-1,-1,-1,-1],"split_conditions":[7.625892E0,-1.4212608E-1,4.0419893E-3,-4.8706344E-1,1.5254651E0,